<GAP_2024_6_19_0_8_21_3_729>
<Potential label="GAP_2024_6_19_0_8_21_3_729" init_args="IP GAP label=GAP_2024_6_19_0_8_21_3_729"/>
<GAP_params label="GAP_2024_6_19_0_8_21_3_729" gap_version="1686220958">
  <GAP_data do_core="F">
    <e0 Z="1" value=".00000000000000000E+000"/>
    <e0 Z="2" value=".00000000000000000E+000"/>
    <e0 Z="3" value=".00000000000000000E+000"/>
    <e0 Z="4" value=".00000000000000000E+000"/>
    <e0 Z="5" value=".00000000000000000E+000"/>
    <e0 Z="6" value=".00000000000000000E+000"/>
    <e0 Z="7" value=".00000000000000000E+000"/>
    <e0 Z="8" value="4.5999999999999996"/>
    <e0 Z="9" value=".00000000000000000E+000"/>
    <e0 Z="10" value=".00000000000000000E+000"/>
    <e0 Z="11" value=".00000000000000000E+000"/>
    <e0 Z="12" value=".00000000000000000E+000"/>
    <e0 Z="13" value=".00000000000000000E+000"/>
    <e0 Z="14" value=".00000000000000000E+000"/>
    <e0 Z="15" value=".00000000000000000E+000"/>
    <e0 Z="16" value=".00000000000000000E+000"/>
    <e0 Z="17" value=".00000000000000000E+000"/>
    <e0 Z="18" value=".00000000000000000E+000"/>
    <e0 Z="19" value=".00000000000000000E+000"/>
    <e0 Z="20" value=".00000000000000000E+000"/>
    <e0 Z="21" value=".00000000000000000E+000"/>
    <e0 Z="22" value=".00000000000000000E+000"/>
    <e0 Z="23" value=".00000000000000000E+000"/>
    <e0 Z="24" value=".00000000000000000E+000"/>
    <e0 Z="25" value=".00000000000000000E+000"/>
    <e0 Z="26" value=".00000000000000000E+000"/>
    <e0 Z="27" value=".00000000000000000E+000"/>
    <e0 Z="28" value=".00000000000000000E+000"/>
    <e0 Z="29" value=".00000000000000000E+000"/>
    <e0 Z="30" value=".00000000000000000E+000"/>
    <e0 Z="31" value=".00000000000000000E+000"/>
    <e0 Z="32" value=".00000000000000000E+000"/>
    <e0 Z="33" value=".00000000000000000E+000"/>
    <e0 Z="34" value=".00000000000000000E+000"/>
    <e0 Z="35" value=".00000000000000000E+000"/>
    <e0 Z="36" value=".00000000000000000E+000"/>
    <e0 Z="37" value=".00000000000000000E+000"/>
    <e0 Z="38" value=".00000000000000000E+000"/>
    <e0 Z="39" value=".00000000000000000E+000"/>
    <e0 Z="40" value=".00000000000000000E+000"/>
    <e0 Z="41" value=".00000000000000000E+000"/>
    <e0 Z="42" value=".00000000000000000E+000"/>
    <e0 Z="43" value=".00000000000000000E+000"/>
    <e0 Z="44" value=".00000000000000000E+000"/>
    <e0 Z="45" value=".00000000000000000E+000"/>
    <e0 Z="46" value=".00000000000000000E+000"/>
    <e0 Z="47" value=".00000000000000000E+000"/>
    <e0 Z="48" value=".00000000000000000E+000"/>
    <e0 Z="49" value=".00000000000000000E+000"/>
    <e0 Z="50" value=".00000000000000000E+000"/>
    <e0 Z="51" value=".00000000000000000E+000"/>
    <e0 Z="52" value=".00000000000000000E+000"/>
    <e0 Z="53" value=".00000000000000000E+000"/>
    <e0 Z="54" value=".00000000000000000E+000"/>
    <e0 Z="55" value=".00000000000000000E+000"/>
    <e0 Z="56" value=".00000000000000000E+000"/>
    <e0 Z="57" value=".00000000000000000E+000"/>
    <e0 Z="58" value=".00000000000000000E+000"/>
    <e0 Z="59" value=".00000000000000000E+000"/>
    <e0 Z="60" value=".00000000000000000E+000"/>
    <e0 Z="61" value=".00000000000000000E+000"/>
    <e0 Z="62" value=".00000000000000000E+000"/>
    <e0 Z="63" value=".00000000000000000E+000"/>
    <e0 Z="64" value=".00000000000000000E+000"/>
    <e0 Z="65" value=".00000000000000000E+000"/>
    <e0 Z="66" value=".00000000000000000E+000"/>
    <e0 Z="67" value=".00000000000000000E+000"/>
    <e0 Z="68" value=".00000000000000000E+000"/>
    <e0 Z="69" value=".00000000000000000E+000"/>
    <e0 Z="70" value=".00000000000000000E+000"/>
    <e0 Z="71" value=".00000000000000000E+000"/>
    <e0 Z="72" value="15.300000000000001"/>
    <e0 Z="73" value=".00000000000000000E+000"/>
    <e0 Z="74" value=".00000000000000000E+000"/>
    <e0 Z="75" value=".00000000000000000E+000"/>
    <e0 Z="76" value=".00000000000000000E+000"/>
    <e0 Z="77" value=".00000000000000000E+000"/>
    <e0 Z="78" value=".00000000000000000E+000"/>
    <e0 Z="79" value=".00000000000000000E+000"/>
    <e0 Z="80" value=".00000000000000000E+000"/>
    <e0 Z="81" value=".00000000000000000E+000"/>
    <e0 Z="82" value=".00000000000000000E+000"/>
    <e0 Z="83" value=".00000000000000000E+000"/>
    <e0 Z="84" value=".00000000000000000E+000"/>
    <e0 Z="85" value=".00000000000000000E+000"/>
    <e0 Z="86" value=".00000000000000000E+000"/>
    <e0 Z="87" value=".00000000000000000E+000"/>
    <e0 Z="88" value=".00000000000000000E+000"/>
    <e0 Z="89" value=".00000000000000000E+000"/>
    <e0 Z="90" value=".00000000000000000E+000"/>
    <e0 Z="91" value=".00000000000000000E+000"/>
    <e0 Z="92" value=".00000000000000000E+000"/>
    <e0 Z="93" value=".00000000000000000E+000"/>
    <e0 Z="94" value=".00000000000000000E+000"/>
    <e0 Z="95" value=".00000000000000000E+000"/>
    <e0 Z="96" value=".00000000000000000E+000"/>
    <e0 Z="97" value=".00000000000000000E+000"/>
    <e0 Z="98" value=".00000000000000000E+000"/>
    <e0 Z="99" value=".00000000000000000E+000"/>
    <e0 Z="100" value=".00000000000000000E+000"/>
    <e0 Z="101" value=".00000000000000000E+000"/>
    <e0 Z="102" value=".00000000000000000E+000"/>
    <e0 Z="103" value=".00000000000000000E+000"/>
    <e0 Z="104" value=".00000000000000000E+000"/>
    <e0 Z="105" value=".00000000000000000E+000"/>
    <e0 Z="106" value=".00000000000000000E+000"/>
    <e0 Z="107" value=".00000000000000000E+000"/>
    <e0 Z="108" value=".00000000000000000E+000"/>
    <e0 Z="109" value=".00000000000000000E+000"/>
    <e0 Z="110" value=".00000000000000000E+000"/>
    <e0 Z="111" value=".00000000000000000E+000"/>
    <e0 Z="112" value=".00000000000000000E+000"/>
    <e0 Z="113" value=".00000000000000000E+000"/>
    <e0 Z="114" value=".00000000000000000E+000"/>
    <e0 Z="115" value=".00000000000000000E+000"/>
    <e0 Z="116" value=".00000000000000000E+000"/>
    <e0 Z="117" value=".00000000000000000E+000"/>
    <e0 Z="118" value=".00000000000000000E+000"/>
  </GAP_data>
  <gpSparse label="GAP_2024_6_19_0_8_21_3_729" n_coordinate="2" fitted="T">
    <gpCoordinates label="GAP_2024_6_19_0_8_21_3_7291" dimensions="547" signal_variance="100.00000000000000" signal_mean=".00000000000000000E+000" sparsified="T" n_permutations="1" covariance_type="2" zeta="2.0000000000000000" n_sparseX="32">
      <descriptor>soap cutoff=4.0 covariance_type=dot_product zeta=2 delta=100.0 atom_sigma=0.7 l_max=6 n_max=6 n_sparse=200 sparse_method=cur_points n_species=2 Z=72 species_Z={72 8 }</descriptor>
      <permutation i="1">1  </permutation>
      <sparseX i="1" alpha="231.96700094662657" sparseCutoff="1.0000000000000000" sliced="T">
        <sparseX_slice start="1" end="50">  0.10797077548311167E+000  0.41012567039765961E-005  0.24182128757277886E-006  0.16830561092124807E-005  0.50554003744792705E-006  0.81814547276908478E-006  0.78131785532941843E-006  0.68491573627340430E-001  0.12912120073539372E-003  0.47666062721015992E-005  0.69743091526926256E-004  0.29561660513553395E-004  0.49309393346685469E-004  0.65228993282872544E-004  0.21723913887620253E-001  0.20355116496944400E-002  0.62580478016327734E-004  0.14655758019666532E-002  0.95250230234264358E-003  0.14952463398119808E-002  0.27268974450836998E-002  0.19631210076872313E+000  0.30061317326837646E-003  0.69560053646739472E-005  0.18245930532888400E-003  0.89057360447098273E-004  0.13621357761959378E-003  0.21035508609706715E-003  0.88056819759235447E-001  0.67040363500243194E-002  0.18140650821090164E-003  0.54520569932018630E-002  0.41993041499697788E-002  0.58761563822279945E-002  0.12449172747875756E-001  0.17846700061100018E+000  0.11052480319234873E-001  
0.32940554924572058E-003  0.10163946938379034E-001  0.93617396570731815E-002  0.11621799357209325E-001  0.28440147081704985E-001  0.82952547945015082E-001 -0.13239938139296776E-004 -0.99196735531210971E-005  0.36913858085281795E-004  0.43311645773811791E-004  0.38429950646308514E-004  0.12653449256100303E-003  0.37208799326991379E-001  </sparseX_slice>
        <sparseX_slice start="51" end="100"> -0.29198106793948734E-003 -0.64768398390488500E-004  0.11635721655759278E-002  0.23131188091245931E-002  0.17376120160682296E-002  0.75139215665824648E-002  0.10664870401003178E+000 -0.63369015976702764E-003  0.82545393896343985E-004  0.31344989847576074E-002  0.75689984296074741E-002  0.51057651734950421E-002  0.24340736365008803E-001  0.31865683930585177E-001  0.10785206680963371E-003  0.38230611836074092E-003  0.58089630896903408E-003  0.34193212555013327E-002  0.15188450437602452E-002  0.10508273370101051E-001 -0.11662576927147672E-001  0.69680351323234194E-007  0.13088077291358012E-005 -0.58182300338162395E-005 -0.60876415029305927E-005 -0.59786964181955938E-005 -0.17623008714422695E-004 -0.52313098906314566E-002  0.10333354532900585E-005  0.77987134801186568E-005 -0.18234154117722492E-003 -0.32427638677827740E-003 -0.26793468069620020E-003 -0.10461355497604948E-002 -0.14994098982011350E-001 -0.36639673917185478E-005 -0.13744262440482538E-004 
-0.49001496932216419E-003 -0.10601676363932093E-002 -0.77996469603634874E-003 -0.33878094646989840E-002 -0.63358229565426902E-002 -0.16158122125745965E-004 -0.73808222770815353E-004 -0.12599234733719404E-003 -0.67561315157787963E-003 -0.31213597592625220E-003 -0.20662482653071136E-002  0.62987275942512897E-003  0.14847220245955203E-005  </sparseX_slice>
        <sparseX_slice start="101" end="150">  0.71346969931190082E-005  0.13691365027774275E-004  0.66756380085693234E-004  0.32316638346638922E-004  0.20317205249139282E-003  0.17362006343649850E-002 -0.72480354278030710E-008 -0.19468031758224479E-006  0.86722568234749042E-006  0.90626010539140940E-006  0.89102064453165722E-006  0.26232359870614911E-005  0.77878187705943797E-003 -0.84029535459627102E-007 -0.11586784758235949E-005  0.27176915627860429E-004  0.48272594240642168E-004  0.39927247083416504E-004  0.15571967958129696E-003  0.22321622679891159E-002  0.70715107093673643E-006  0.20495658129381897E-005  0.73031902563266867E-004  0.15781708091493795E-003  0.11621762829552317E-003  0.50428138054607922E-003  0.94321005598408520E-003  0.23959637217386593E-005  0.10983161719127540E-004  0.18774017551943446E-004  0.10056825529862139E-003  0.46483853000478508E-004  0.30756097235749147E-003 -0.13260906516898257E-003 -0.31224867596129718E-006 -0.15014826313724704E-005 -0.28852568300483792E-005 
-0.14053076412316105E-004 -0.68066948720454734E-005 -0.42768929752840751E-004  0.13959298843976884E-004  0.32835370443136048E-007  0.15799203046465592E-006  0.30401311277778572E-006  0.14791766797736322E-005  0.71683104061913959E-006  0.45015575799404511E-005  0.11531570313022997E+000  0.21304932028937411E-004 -0.18597988155177821E-005  </sparseX_slice>
        <sparseX_slice start="151" end="200">  0.16587768433004886E-004  0.17134537260819464E-004 -0.14876912184895332E-004 -0.65220283660415277E-005  0.51725461885363179E-001  0.47433138452467874E-003 -0.29703284154433134E-004  0.52566024679568182E-003  0.79862338439459931E-003 -0.64525512217304128E-003 -0.37937922467957806E-003  0.14825669127121302E+000  0.11241279860471879E-002 -0.54787183600239608E-004  0.13990541936470520E-002  0.25256663777645377E-002 -0.17714544177456438E-002 -0.12114481199217014E-002  0.62646521751266282E-001  0.47706805455946349E-005  0.34659049201909861E-004  0.32420730665852921E-003  0.14634280928568970E-002 -0.46932518087813434E-003 -0.70485497998004046E-003 -0.88076846009198292E-002 -0.66854503179908268E-005 -0.44262520694858775E-005 -0.50520346418246239E-004 -0.20375999644788872E-003  0.74836814795509627E-004  0.98454049731404680E-004  0.13111945744861786E-002  0.10056309651199311E-005  0.65813966693944223E-006  0.75294878719860211E-005  0.30329937668511260E-004 
-0.11155925445826022E-004 -0.14655691355697825E-004  0.61580142075108570E-001  0.72062645058729443E-004  0.29015744049475941E-004  0.79044547128394457E-003  0.13193816771233278E-002  0.33964661724180875E-003  0.45962440165369436E-004  0.28446557364433439E+000  0.26758404728473372E-004 -0.63272860621677881E-006  0.35237960218992096E-004  </sparseX_slice>
        <sparseX_slice start="201" end="250">  0.46530705596174293E-004 -0.58563991636857740E-004 -0.45650510646720274E-004  0.12759852117123058E+000  0.60962722779565805E-003 -0.21307680407017605E-004  0.10589810805400753E-002  0.21693727084999897E-002 -0.25168112676376701E-002 -0.26518469581341803E-002  0.36572577354402569E+000  0.13352497210916826E-002 -0.51327737879690961E-004  0.28022508811428501E-002  0.68575876221421877E-002 -0.68732506152701777E-002 -0.84778609667548552E-002  0.15453904596731824E+000 -0.29764889370598337E-003  0.19566005232853797E-005  0.63386024819536962E-003  0.39666143097317648E-002 -0.17398774568232215E-002 -0.49545660411266191E-002 -0.21727162775476476E-001  0.30531322417857166E-004  0.23748641329806801E-006 -0.98688422912064812E-004 -0.55256771397903324E-003  0.28020801235952822E-003  0.69126410507415383E-003  0.32345093223714689E-002 -0.45248814459255309E-005 -0.36256814570306786E-007  0.14707850348409229E-004  0.82250828488165882E-004 -0.41774659285664422E-004 
-0.10289896862729798E-003  0.21483099902619870E+000 -0.10532920599588194E-004 -0.51413444236337132E-004  0.10964092353425471E-002  0.42820741468253707E-002  0.19304959986633176E-002  0.48796959406658774E-003  0.37473409923529488E+000  0.47529371681503192E-003  0.15579082711097183E-003  0.12690030159254078E-002  0.71920617234362020E-002  </sparseX_slice>
        <sparseX_slice start="251" end="300">  0.59698407213987920E-002  0.28859286095729579E-002  0.21819616681019857E+000 -0.69850527456838748E-004  0.47177977891518877E-005  0.54060168533078114E-005  0.26668589459546793E-004 -0.72552800761797195E-004 -0.89171434870500318E-004  0.97873032063354543E-001 -0.15075483895880411E-002  0.22012058703823607E-004 -0.39567181813221558E-004  0.12617693588712884E-002 -0.30701890058809638E-002 -0.51749890780676796E-002  0.28052590290160934E+000 -0.38684231981662969E-002 -0.29920947184854263E-004 -0.19146860091993052E-003  0.39916954509766059E-002 -0.83027438203933917E-002 -0.16549755811647644E-001  0.11853746314741627E+000 -0.84140343327760911E-003 -0.17053741037016546E-003 -0.16686148480619771E-003  0.23099070350169680E-002 -0.19168450578275877E-002 -0.96848310410874942E-002 -0.16665579502416608E-001  0.12740892950418008E-003  0.24099652252674740E-004  0.25084399843734219E-004 -0.32273723884718408E-003  0.31512919756506076E-003  0.13505397699291844E-002  
0.24809945421926938E-002 -0.18980842476676977E-004 -0.35878210049390954E-005 -0.37382380340646805E-005  0.48041517007131974E-004 -0.46990286306211841E-004 -0.20103510048200037E-003  0.16478373779644059E+000 -0.71369350263999511E-003 -0.33889569590611743E-003 -0.33406260308334336E-002  0.75188621534055843E-003  0.25062241844946930E-002  </sparseX_slice>
        <sparseX_slice start="301" end="350">  0.99294516361991066E-003  0.40649537944181091E+000  0.19450498246189646E-002  0.92100265938326823E-003 -0.11126814610982962E-002  0.27214239800430512E-002  0.12161764946237025E-001  0.87093496737602281E-002  0.22047432278612689E+000  0.72383589484689278E-002  0.31254145236605949E-002  0.11717937173269364E-001  0.22858178003759152E-002  0.13789297613084457E-001  0.13418623940207972E-001  0.83221230869230736E-002 -0.89926312756480767E-004 -0.76923320048807530E-005 -0.95355448508496158E-005 -0.23613801198281621E-004  0.14035688898651966E-004 -0.91028693816602769E-005  0.37329318458198253E-002 -0.19707717146758667E-002 -0.18840757585188666E-003 -0.46774818438007602E-003 -0.10544468562015143E-002  0.65281430659163201E-003 -0.52221191835147924E-003  0.10699413867559770E-001 -0.47036558380788209E-002 -0.45365523857275771E-003 -0.13636411674736836E-002 -0.33095412508517882E-002  0.18784347542715482E-002 -0.16654150831251723E-002  0.45210847337318920E-002 
-0.12811688262978209E-003 -0.10723732924693203E-004 -0.53764294969118394E-003 -0.18781106468644306E-002  0.69367565433658344E-003 -0.96634653817728462E-003 -0.63563446581835496E-003  0.41053456166279285E-004  0.42223824241511185E-005  0.80719969001978698E-004  0.26042006292088907E-003 -0.10444002129948203E-003  0.13445774213126268E-003  </sparseX_slice>
        <sparseX_slice start="351" end="400">  0.94626510905080244E-004 -0.61509752376341523E-005 -0.63320371540219248E-006 -0.12025759579327085E-004 -0.38762260912003983E-004  0.15559473293279037E-004 -0.20014330078184632E-004  0.62849433549312895E-002 -0.48699155353874873E-003 -0.65093096853070215E-005 -0.17094018746053122E-002 -0.28972572296394423E-002 -0.28896889909107309E-003  0.14130211380390420E-003  0.15503959723192221E-001  0.41299196662492130E-003  0.25780496625537962E-003 -0.86383708064000954E-003 -0.63655493326650143E-002 -0.30281630213178950E-003  0.15259922591546512E-002  0.11892140544957033E-001  0.44766844774633170E-002  0.95799028119791091E-003  0.77653654523730945E-002 -0.22056927402083621E-003  0.12289116781729187E-002  0.36634905402187896E-002  0.32072443846034538E-003  0.18883357854697354E-002  0.49142367866734113E-003  0.29005115975598143E-002  0.35868315928727990E-002  0.11014937195287283E-002  0.78929505662986743E-003 -0.10259028446158922E-002  0.12925014087854541E-004  
0.10643082269602255E-005  0.14475129145647952E-005  0.34553579548708330E-005 -0.21031009375006885E-005  0.12655798013194162E-005 -0.46017408771584678E-003  0.28317127348833016E-003  0.25878905617811707E-004  0.69049646126977533E-004  0.15475008993725095E-003 -0.97531777575018261E-004  0.72549763050122084E-004 -0.13189614005709978E-002  </sparseX_slice>
        <sparseX_slice start="401" end="450">  0.67575664009181821E-003  0.61898478012755852E-004  0.20000225990904623E-003  0.48594990733456448E-003 -0.28014981522763544E-003  0.23144846907532308E-003 -0.55733298349951513E-003  0.18217784847134462E-004  0.46208117624675848E-006  0.76403431547089561E-004  0.27614464050938043E-003 -0.10239483532732015E-003  0.13447152052737323E-003  0.78357313369184153E-004 -0.58717851715912239E-005 -0.44358230598582189E-006 -0.11502689798932166E-004 -0.38302732957784107E-004  0.15432591319737760E-004 -0.18703567278766276E-004 -0.11665004915168940E-004  0.87978618206311823E-006  0.66682492925397139E-007  0.17137396224297281E-005  0.57011944721943111E-005 -0.22991759112927116E-005  0.27840549643927669E-005 -0.77477119705251466E-003  0.69932330554412219E-004  0.19005489271321858E-005  0.25356056005416722E-003  0.42372979419900210E-003  0.44423050432618041E-004 -0.19945265567948972E-004 -0.19112378195686912E-002 -0.59363044799655536E-004 -0.38466297958120823E-004  
0.13057421368223228E-003  0.93054402478970528E-003  0.54849327665073049E-004 -0.21854459153534963E-003 -0.14659937958396818E-002 -0.64321845432489767E-003 -0.14557788298019900E-003 -0.11424714549389291E-002  0.32229642502194737E-004 -0.16166015665201142E-003 -0.52585325374235694E-003 -0.55913818248951788E-004 -0.38406524486227190E-003  </sparseX_slice>
        <sparseX_slice start="451" end="500"> -0.98402955621418773E-004 -0.60017601884325607E-003 -0.73894696682554593E-003 -0.22390948590843540E-003 -0.15916150051288231E-003  0.48738959310133118E-005  0.39058523849640164E-004  0.98782239503462260E-005  0.62140438420837162E-004  0.76145521019836009E-004  0.22787972177399808E-004  0.16072335475065697E-004  0.15244024764051714E-003 -0.19246454633691065E-005 -0.15841111426910336E-006 -0.21568816030325931E-006 -0.51464796240840714E-006  0.31333321865789614E-006 -0.18836908741223784E-006  0.68377870533556441E-004 -0.42166490981537520E-004 -0.38513883949813225E-005 -0.10285379442692645E-004 -0.23049626093846160E-004  0.14530357474518729E-004 -0.10798219570367836E-004  0.19598620238411182E-003 -0.10062538364348443E-003 -0.92110860376385195E-005 -0.29789270984266441E-004 -0.72381437106285964E-004  0.41735991663604944E-004 -0.34448662399402500E-004  0.82814838138697399E-004 -0.27122125545412164E-005 -0.66681682054456091E-007 -0.11375483212721840E-004 
-0.41131994507721085E-004  0.15252491157895968E-004 -0.20015010964005159E-004 -0.11643215843617519E-004  0.87427949180913815E-006  0.65733237405890641E-007  0.17126601041366250E-005  0.57052489632866943E-005 -0.22988344036395530E-005  0.27838633695371723E-005  0.17333183618006092E-005 -0.13099584833972961E-006 -0.98819295859215443E-008  </sparseX_slice>
        <sparseX_slice start="501" end="547"> -0.25516246080863037E-006 -0.84920141802047884E-006  0.34248464529078604E-006 -0.41438235207042332E-006  0.11512426714017484E-003 -0.10413310728842567E-004 -0.28472420805258634E-006 -0.37771446735507658E-004 -0.63110667262758025E-004 -0.66204725583907424E-005  0.29692677470451758E-005  0.28399333138028033E-003  0.88391636175970859E-005  0.57303933135394634E-005 -0.19455497168649192E-004 -0.13859547605199129E-003 -0.81893775030580464E-005  0.32540787868810764E-004  0.21783393861329485E-003  0.95778258672238228E-004  0.21691501461551126E-004  0.17016980179712058E-003 -0.48010044588777491E-005  0.24043241448211180E-004  0.78300601171939601E-004  0.83083075021478895E-005  0.57190261626191265E-004  0.14650096912890660E-004  0.89389653903909015E-004  0.11005385552348414E-003  0.33341788687741524E-004  0.23697688028065578E-004 -0.10241997398224572E-005 -0.82252306068114837E-005 -0.20798898814844705E-005 -0.13088859593067844E-004 -0.16038112572268715E-004 
-0.47989282910408966E-005 -0.33843095315952332E-005  0.10761258774295360E-006  0.86606471818749114E-006  0.21896363500025101E-006  0.13784764662019413E-005  0.16890098393806850E-005  0.50530423115357200E-006  0.35631267222154633E-006  0.00000000000000000E+000  </sparseX_slice>
      </sparseX>
      <sparseX i="2" alpha="213.20501844332705" sparseCutoff="1.0000000000000000" sliced="T">
        <sparseX_slice start="1" end="50">  0.10797060528381794E+000  0.41012927674628355E-005  0.24182771992504413E-006  0.16830719082747461E-005  0.50554682365438620E-006  0.81815314502070649E-006  0.78132352259782466E-006  0.68491688691236050E-001  0.12912153044685368E-003  0.47666780331306183E-005  0.69743393271276357E-004  0.29561885354694347E-004  0.49309658734796716E-004  0.65229338151463165E-004  0.21724021123368981E-001  0.20355047587937579E-002  0.62581043736883069E-004  0.14655758733700850E-002  0.95250602738220923E-003  0.14952487213580952E-002  0.27269067573837051E-002  0.19631230487357143E+000  0.30061317687401796E-003  0.69560520653503179E-005  0.18245974127383368E-003  0.89057876795829095E-004  0.13621409799190157E-003  0.21035607318588642E-003  0.88057198053246064E-001  0.67039969933594236E-002  0.18140779860279687E-003  0.54520484790819574E-002  0.41993154350633286E-002  0.58761571485568013E-002  0.12449208327489993E-001  0.17846765304070217E+000  0.11052387824547816E-001  
0.32940797044426953E-003  0.10163915993866658E-001  0.93617544774739821E-002  0.11621784477429661E-001  0.28440212941255250E-001  0.82952440978527789E-001 -0.13241542233618306E-004 -0.99199256993039059E-005  0.36913227643030915E-004  0.43311597651686481E-004  0.38429646998372522E-004  0.12653485435941758E-003  0.37208872510313046E-001  </sparseX_slice>
        <sparseX_slice start="51" end="100"> -0.29201462778242522E-003 -0.64769539337614028E-004  0.11635525784979628E-002  0.23131154778126147E-002  0.17375941642197384E-002  0.75139302169558303E-002  0.10664884548511784E+000 -0.63376779816597161E-003  0.82546230969983718E-004  0.31344463447597198E-002  0.75689830736173930E-002  0.51057101735507201E-002  0.24340752453131026E-001  0.31865651980963000E-001  0.10785451060115717E-003  0.38231092593695614E-003  0.58088666628064900E-003  0.34193079428812912E-002  0.15188254663551209E-002  0.10508264823931227E-001 -0.11662561818332567E-001  0.69902907162134607E-007  0.13088433867998381E-005 -0.58181465943369604E-005 -0.60876357197905346E-005 -0.59786581438710543E-005 -0.17623059000894702E-004 -0.52313201483041253E-002  0.10382071816977311E-005  0.77988674267622977E-005 -0.18233886731080422E-003 -0.32427599809918447E-003 -0.26793226822891686E-003 -0.10461367471245086E-002 -0.14994118782423073E-001 -0.36524944425172760E-005 -0.13744423279650553E-004 
-0.49000770847937194E-003 -0.10601657699304151E-002 -0.77995715109335328E-003 -0.33878116805899287E-002 -0.63358165659815023E-002 -0.16158217244526290E-004 -0.73809247003329924E-004 -0.12599031922165549E-003 -0.67561074987079674E-003 -0.31213196925788765E-003 -0.20662465656146370E-002  0.62987212032798463E-003  0.14846905252618659E-005  </sparseX_slice>
        <sparseX_slice start="101" end="150">  0.71348054136570052E-005  0.13691153350816141E-004  0.66756165348001305E-004  0.32316229222515115E-004  0.20317188346761808E-003  0.17361983850394903E-002 -0.72811608839869306E-008 -0.19468562604259868E-006  0.86721326996241842E-006  0.90625924646738006E-006  0.89101495446620054E-006  0.26232434723449934E-005  0.77878340407448656E-003 -0.84755029383565827E-007 -0.11587013839940748E-005  0.27176517713645017E-004  0.48272536519153928E-004  0.39926888117966576E-004  0.15571985780815883E-003  0.22321652155542623E-002  0.70544218600620969E-006  0.20495898227077523E-005  0.73030821898049006E-004  0.15781680356683961E-003  0.11621650543362629E-003  0.50428171037051510E-003  0.94320910457872879E-003  0.23959771988120463E-005  0.10983314303237577E-004  0.18773715434869951E-004  0.10056789817860941E-003  0.46483256340933738E-004  0.30756071933616216E-003 -0.13260893061134801E-003 -0.31224194334057591E-006 -0.15015054719409515E-005 -0.28852122402854546E-005 
-0.14053031260939749E-004 -0.68066087126431348E-005 -0.42768894169239270E-004  0.13959284678871359E-004  0.32834651089083475E-007  0.15799443633337366E-006  0.30400841636406641E-006  0.14791719329494511E-005  0.71682196826176211E-006  0.45015538343351094E-005  0.11531575264743905E+000  0.21305300529595672E-004 -0.18598265187044557E-005  </sparseX_slice>
        <sparseX_slice start="151" end="200">  0.16587504655656980E-004  0.17134553482388677E-004 -0.14876909814125137E-004 -0.65220511988373979E-005  0.51725652531430848E-001  0.47433614655143348E-003 -0.29703751091214198E-004  0.52565039663882780E-003  0.79862638618945366E-003 -0.64525385429445412E-003 -0.37937986316647292E-003  0.14825714277992377E+000  0.11241362533173343E-002 -0.54788117381699153E-004  0.13990252541135420E-002  0.25256774103227810E-002 -0.17714494248986387E-002 -0.12114495462049553E-002  0.62646566622592062E-001  0.47646787954804012E-005  0.34659416202262414E-004  0.32419451869252587E-003  0.14634370828073046E-002 -0.46932054470775987E-003 -0.70485467949321678E-003 -0.88076908566366383E-002 -0.66846629156718674E-005 -0.44263064844043148E-005 -0.50518522363729244E-004 -0.20376126687373888E-003  0.74836172040613607E-004  0.98454003048226347E-004  0.13111955057063050E-002  0.10055138425812568E-005  0.65814777022036786E-006  0.75292162831099107E-005  0.30330126801006919E-004 
-0.11155829776161267E-004 -0.14655684399461531E-004  0.61580292032679444E-001  0.72064965310997565E-004  0.29016067377370632E-004  0.79043883970733185E-003  0.13193849335356724E-002  0.33964642602059346E-003  0.45962448726240923E-004  0.28446540180023094E+000  0.26758522114564555E-004 -0.63307700964078451E-006  0.35237536130196724E-004  </sparseX_slice>
        <sparseX_slice start="201" end="250">  0.46530836611529142E-004 -0.58563901203663393E-004 -0.45650681900433192E-004  0.12759885959136030E+000  0.60962676170983263E-003 -0.21311791220940643E-004  0.10589653608167921E-002  0.21693801390842231E-002 -0.25168025283156641E-002 -0.26518505423208105E-002  0.36572650936586359E+000  0.13352472748627505E-002 -0.51332337299041104E-004  0.28022037591417604E-002  0.68576109385469642E-002 -0.68732195322137677E-002 -0.84778662356159024E-002  0.15453899694159740E+000 -0.29765062663727294E-003  0.19682165544634013E-005  0.63383724677129713E-003  0.39666270285443582E-002 -0.17398534741530638E-002 -0.49545575695578072E-002 -0.21727155752306521E-001  0.30531672852961054E-004  0.23596410469516943E-006 -0.98685239980997661E-004 -0.55256956297821791E-003  0.28020467911307105E-003  0.69126289796786890E-003  0.32345082766771886E-002 -0.45249337965154152E-005 -0.36030387901807193E-007  0.14707376592338179E-004  0.82251103843927159E-004 -0.41774163139976981E-004 
-0.10289878891117501E-003  0.21483130014598953E+000 -0.10535282688041724E-004 -0.51414859031370979E-004  0.10963928203117492E-002  0.42820795669744321E-002  0.19304907405033218E-002  0.48796984127544594E-003  0.37473423719656945E+000  0.47528381431026566E-003  0.15578843881493008E-003  0.12689821433429678E-002  0.71920632293457579E-002  </sparseX_slice>
        <sparseX_slice start="251" end="300">  0.59698129850432827E-002  0.28859287345949663E-002  0.21819557992567420E+000 -0.69852161149992691E-004  0.47169900088098508E-005  0.54064381342544657E-005  0.26668857295703946E-004 -0.72552638279298006E-004 -0.89171766824433653E-004  0.97873087518543109E-001 -0.15075702969613853E-002  0.22003419273178699E-004 -0.39553285127513910E-004  0.12617727611926011E-002 -0.30701758406922481E-002 -0.51749939781676000E-002  0.28052588223476654E+000 -0.38684585144189605E-002 -0.29928110517976290E-004 -0.19143270918733994E-003  0.39916965549295254E-002 -0.83026973562048204E-002 -0.16549756923941530E-001  0.11853717831908395E+000 -0.84136760900786138E-003 -0.17050724702671961E-003 -0.16685615531757816E-003  0.23098898633388317E-002 -0.19168095362436615E-002 -0.96848043904750117E-002 -0.16665539357363496E-001  0.12740442715084919E-003  0.24095737020293915E-004  0.25083313877880952E-004 -0.32273498294623941E-003  0.31512429591793936E-003  0.13505360200360271E-002  
0.24809885657012063E-002 -0.18980173134081566E-004 -0.35872387144344065E-005 -0.37380758055396460E-005  0.48041181455691059E-004 -0.46989556769861979E-004 -0.20103454226313614E-003  0.16478362509075686E+000 -0.71372028431130545E-003 -0.33890200087618679E-003 -0.33406166470907489E-002  0.75187788491039970E-003  0.25062129136302455E-002  </sparseX_slice>
        <sparseX_slice start="301" end="350">  0.99294551466245010E-003  0.40649468130217137E+000  0.19450193904378139E-002  0.92100132837965893E-003 -0.11126681265410184E-002  0.27214049568583623E-002  0.12161692849961986E-001  0.87093458648951697E-002  0.22047348430599517E+000  0.72383996388092012E-002  0.31254353883533666E-002  0.11717923373261486E-001  0.22858136034606354E-002  0.13789206682545760E-001  0.13418609994906627E-001  0.83220823683618581E-002 -0.89926611273973651E-004 -0.76924493095348262E-005 -0.95349782714251155E-005 -0.23613776404031848E-004  0.14035528765330998E-004 -0.91028748427653473E-005  0.37329257368671600E-002 -0.19707639372686949E-002 -0.18840843419213371E-003 -0.46773276522565709E-003 -0.10544493924048806E-002  0.65280583132145320E-003 -0.52220867114368308E-003  0.10699389507387575E-001 -0.47036236737794815E-002 -0.45365496155037080E-003 -0.13636026037220801E-002 -0.33095534415077715E-002  0.18784100669231021E-002 -0.16654004397708849E-002  0.45210639098218477E-002 
-0.12808852033849462E-003 -0.10718561174726930E-004 -0.53763904277854375E-003 -0.18781254714852764E-002  0.69366613972061725E-003 -0.96632982399456684E-003 -0.63563153429780370E-003  0.41049410940144705E-004  0.42217220553453495E-005  0.80719217627907609E-004  0.26042205792867223E-003 -0.10443858288148398E-003  0.13445543681382690E-003  </sparseX_slice>
        <sparseX_slice start="351" end="400">  0.94626074486763408E-004 -0.61503729384577691E-005 -0.63310551827297556E-006 -0.12025647377663611E-004 -0.38762557750407335E-004  0.15559258984282087E-004 -0.20013986972263990E-004  0.62849252098950417E-002 -0.48700338685385365E-003 -0.65103221186466734E-005 -0.17093874500571571E-002 -0.28972559723328775E-002 -0.28896623776401289E-003  0.14130149839847004E-003  0.15503898938970318E-001  0.41297611775475312E-003  0.25780604599020797E-003 -0.86381467596754536E-003 -0.63655430991501919E-002 -0.30280738936509181E-003  0.15259840837668532E-002  0.11892069118737121E-001  0.44766940635231293E-002  0.95799488534079058E-003  0.77653452526062526E-002 -0.22056393340207287E-003  0.12289172178683320E-002  0.36634687011494254E-002  0.32072180554951093E-003  0.18883205172802893E-002  0.49141759869234197E-003  0.29004989237631533E-002  0.35868229592550915E-002  0.11014855099197476E-002  0.78928796095893976E-003 -0.10258976687431438E-002  0.12925058243774857E-004  
0.10643249863304580E-005  0.14474294187009201E-005  0.34553541807800748E-005 -0.21030774277845454E-005  0.12655806429367137E-005 -0.46017326451878538E-003  0.28317017681381675E-003  0.25879015193963096E-004  0.69047347483553966E-004  0.15475046959655575E-003 -0.97530529335561003E-004  0.72549305451352186E-004 -0.13189581966087181E-002  </sparseX_slice>
        <sparseX_slice start="401" end="450">  0.67575206675713102E-003  0.61898394691130632E-004  0.19999647303755973E-003  0.48595171688943322E-003 -0.28014617430482513E-003  0.23144640270771533E-003 -0.55733033152350090E-003  0.18213711167134754E-004  0.46131554231621543E-006  0.76402759982397846E-004  0.27614681728557522E-003 -0.10239342170653663E-003  0.13446915861872329E-003  0.78356940048420162E-004 -0.58712041882237803E-005 -0.44348409329295860E-006 -0.11502565844137675E-004 -0.38303026718260412E-004  0.15432377627095342E-004 -0.18703241284125750E-004 -0.11664949338562540E-004  0.87969967872905811E-006  0.66667887828852562E-007  0.17137211189707537E-005  0.57012381824159046E-005 -0.22991440734412515E-005  0.27840064454675918E-005 -0.77476884217928237E-003  0.69934045546155401E-004  0.19007077087438430E-005  0.25355845243074703E-003  0.42372962497857597E-003  0.44422660674216130E-004 -0.19945183209207492E-004 -0.19112300352117056E-002 -0.59360745497518698E-004 -0.38466408213279125E-004  
0.13057088601426233E-003  0.93054311075517460E-003  0.54847989240594793E-004 -0.21854345469671859E-003 -0.14659847674454386E-002 -0.64321984160599160E-003 -0.14557848778851666E-003 -0.11424686352287238E-002  0.32228789989727772E-004 -0.16166105040581506E-003 -0.52585018692872122E-003 -0.55913350717739326E-004 -0.38406212633832816E-003  </sparseX_slice>
        <sparseX_slice start="451" end="500"> -0.98401702556774986E-004 -0.60017337837605831E-003 -0.73894516134592812E-003 -0.22390777682877662E-003 -0.15916006751448783E-003  0.48738544345752359E-005  0.39058205311591822E-004  0.98780948185319011E-005  0.62140163394611139E-004  0.76145332366172816E-004  0.22787794342283770E-004  0.16072190730457349E-004  0.15243947822771932E-003 -0.19246520408728095E-005 -0.15841360966506591E-006 -0.21567572338370884E-006 -0.51464740003399621E-006  0.31332971703274152E-006 -0.18836921286105363E-006  0.68377748068704474E-004 -0.42166327718186792E-004 -0.38514046855824817E-005 -0.10285037006055364E-004 -0.23049682654269016E-004  0.14530171548323828E-004 -0.10798151450575501E-004  0.19598572588778033E-003 -0.10062470273236688E-003 -0.92110735488873517E-005 -0.29788408826244586E-004 -0.72381706661858082E-004  0.41735449334977266E-004 -0.34448354785039793E-004  0.82814443902587428E-004 -0.27116059574779124E-005 -0.66567633299859189E-007 -0.11375383006697752E-004 
-0.41132318724452530E-004  0.15252280572157329E-004 -0.20014659344018248E-004 -0.11643160346719211E-004  0.87419297970022655E-006  0.65718606803826228E-007  0.17126416166450888E-005  0.57052927184754543E-005 -0.22988025701387661E-005  0.27838148379544887E-005  0.17333100999262190E-005 -0.13098296744463286E-006 -0.98797538843733149E-008  </sparseX_slice>
        <sparseX_slice start="501" end="547"> -0.25515970108304517E-006 -0.84920792859590993E-006  0.34247990244981838E-006 -0.41437512894421080E-006  0.11512391698247861E-003 -0.10413566127432759E-004 -0.28474787523280873E-006 -0.37771132833048307E-004 -0.63110642085205287E-004 -0.66204145076398330E-005  0.29692554948277272E-005  0.28399217409057513E-003  0.88388211999795846E-005  0.57304096524889914E-005 -0.19455001455438461E-004 -0.13859533990838213E-003 -0.81891780939235797E-005  0.32540618660050052E-004  0.21783259661068474E-003  0.95778465266834219E-004  0.21691591422634929E-004  0.17016938208766578E-003 -0.48008773501015409E-005  0.24043374722391635E-004  0.78300144644194130E-004  0.83082380134637803E-005  0.57189797229149684E-004  0.14649910291724990E-004  0.89389260605631863E-004  0.11005358658079933E-003  0.33341534118814564E-004  0.23697474663330651E-004 -0.10241910175966485E-005 -0.82251635230087951E-005 -0.20798626835564909E-005 -0.13088801659568468E-004 -0.16038072830814782E-004 
-0.47988908305328268E-005 -0.33842790529249784E-005  0.10761167107128403E-006  0.86605765429554120E-006  0.21896077076694054E-006  0.13784703644378628E-005  0.16890056534481845E-005  0.50530028567413746E-006  0.35630946329585199E-006  0.00000000000000000E+000  </sparseX_slice>
      </sparseX>
      <sparseX i="3" alpha="-238.96962928589704" sparseCutoff="1.0000000000000000" sliced="T">
        <sparseX_slice start="1" end="50">  0.10797071192698035E+000  0.41013441177784723E-005  0.24181869464787396E-006  0.16830584753012645E-005  0.50554912680855317E-006  0.81816012667797613E-006  0.78132715435152468E-006  0.68491820576193005E-001  0.12912294017918132E-003  0.47664384082989673E-005  0.69742950740335306E-004  0.29562048026567321E-004  0.49310093529978054E-004  0.65229579057065666E-004  0.21724083328328810E-001  0.20355235700745193E-002  0.62579168949794027E-004  0.14655677838939318E-002  0.95251219711435812E-003  0.14952623011678431E-002  0.27269141889357603E-002  0.19631254364651995E+000  0.30061648630399260E-003  0.69555280448753419E-005  0.18245887707621732E-003  0.89058370498814584E-004  0.13621543271437664E-003  0.21035667142233307E-003  0.88057387741436566E-001  0.67040600562450810E-002  0.18140546738641707E-003  0.54520251009846608E-002  0.41993439839223320E-002  0.58762165283262700E-002  0.12449231578633821E-001  0.17846791090453365E+000  0.11052495573353844E-001  
0.32941435092913703E-003  0.10163883349275727E-001  0.93618226378586068E-002  0.11621914378257110E-001  0.28440241441587771E-001  0.82952265715372911E-001 -0.13241483925902293E-004 -0.99198375461602975E-005  0.36913734453358446E-004  0.43311836224096403E-004  0.38430343520843285E-004  0.12653485285571200E-003  0.37208828791306610E-001  </sparseX_slice>
        <sparseX_slice start="51" end="100"> -0.29201133863644024E-003 -0.64760547391444560E-004  0.11635635565411511E-002  0.23131337028279627E-002  0.17376260584854655E-002  0.75139226785726800E-002  0.10664864453418037E+000 -0.63375264739302830E-003  0.82579755023582375E-004  0.31344737034808452E-002  0.75690502332593172E-002  0.51058089301609030E-002  0.24340706550486375E-001  0.31865485854939271E-001  0.10786770643501574E-003  0.38233127392096319E-003  0.58088948446861249E-003  0.34193482567597424E-002  0.15188629027638992E-002  0.10508214401142220E-001 -0.11662541439970763E-001  0.69891302747680797E-007  0.13088320939571135E-005 -0.58182015747713815E-005 -0.60876707701378341E-005 -0.59787524390385698E-005 -0.17623066537973082E-004 -0.52313159136649114E-002  0.10377546106336723E-005  0.77976508629512118E-005 -0.18233994557934229E-003 -0.32427854538810490E-003 -0.26793658230963696E-003 -0.10461361591041006E-002 -0.14994096010159819E-001 -0.36545362383860796E-005 -0.13748980889976651E-004 
-0.49001038829672608E-003 -0.10601750824902512E-002 -0.77997057872958482E-003 -0.33878067969487675E-002 -0.63357858509345381E-002 -0.16160718747769344E-004 -0.73813191031259800E-004 -0.12599076434969324E-003 -0.67561854163754385E-003 -0.31213932066457331E-003 -0.20662375829981453E-002  0.62986929701371692E-003  0.14849247430437785E-005  </sparseX_slice>
        <sparseX_slice start="101" end="150">  0.71351875335365703E-005  0.13691180959733582E-004  0.66756917789585524E-004  0.32316947017044354E-004  0.20317109150236941E-003  0.17361953585643115E-002 -0.72794260859470703E-008 -0.19468394715999964E-006  0.86722142755504539E-006  0.90626446672049233E-006  0.89102898621269922E-006  0.26232446072957130E-005  0.77878277691345208E-003 -0.84687647530612739E-007 -0.11585203698892797E-005  0.27176677460310149E-004  0.48272915692546333E-004  0.39927530070379733E-004  0.15571977105673654E-003  0.22321618347683572E-002  0.70574604011930333E-006  0.20502680033390560E-005  0.73031218905957881E-004  0.15781818964632512E-003  0.11621850362758704E-003  0.50428098596543654E-003  0.94320453598127206E-003  0.23963493527823176E-005  0.10983901250584339E-004  0.18773781526537955E-004  0.10056905770218547E-003  0.46484350556911113E-004  0.30755938384264517E-003 -0.13260833676314408E-003 -0.31229121463307587E-006 -0.15015858934972781E-005 -0.28852180161154625E-005 
-0.14053189614715907E-004 -0.68067597975339513E-005 -0.42768727673099044E-004  0.13959222224721704E-004  0.32839833565233792E-007  0.15800289915729586E-006  0.30400902048157108E-006  0.14791885959817417E-005  0.71683786879304000E-006  0.45015363329866224E-005  0.11531585771085018E+000  0.21305524236461584E-004 -0.18597982076046008E-005  </sparseX_slice>
        <sparseX_slice start="151" end="200">  0.16587512604595797E-004  0.17134639886899648E-004 -0.14876955347481421E-004 -0.65220691447833476E-005  0.51725748169534604E-001  0.47434123592459451E-003 -0.29702507609043887E-004  0.52564996274486451E-003  0.79862909289411192E-003 -0.64525546988387385E-003 -0.37938052865251571E-003  0.14825731174548784E+000  0.11241499419965919E-002 -0.54784279447303272E-004  0.13990236303190733E-002  0.25256837233325427E-002 -0.17714546410933011E-002 -0.12114505976501095E-002  0.62646429462514877E-001  0.47690686029639693E-005  0.34661457352247863E-004  0.32419328845068203E-003  0.14634363580096265E-002 -0.46932396367928796E-003 -0.70485310150742732E-003 -0.88076747919060804E-002 -0.66852527919692934E-005 -0.44266048299910359E-005 -0.50518318533435353E-004 -0.20376123017576642E-003  0.74836571406380423E-004  0.98453828012884495E-004  0.13111931196267252E-002  0.10056016128433184E-005  0.65819220129642657E-006  0.75291858912753700E-005  0.30330121449068493E-004 
-0.11155889099618401E-004 -0.14655658420755119E-004  0.61580343420270273E-001  0.72065239470848040E-004  0.29016040095049061E-004  0.79043955410768659E-003  0.13193864514335744E-002  0.33964674236730043E-003  0.45962483937924481E-004  0.28446555368902005E+000  0.26759258864704546E-004 -0.63294764759359471E-006  0.35237401506350216E-004  </sparseX_slice>
        <sparseX_slice start="201" end="250">  0.46531177325335634E-004 -0.58564067764511576E-004 -0.45650796313854536E-004  0.12759904739138933E+000  0.60963769846004165E-003 -0.21308785097412520E-004  0.10589639191953516E-002  0.21693915797315433E-002 -0.25168093075138040E-002 -0.26518544400969987E-002  0.36572678824343213E+000  0.13352643821692338E-002 -0.51324954158389518E-004  0.28022052707613772E-002  0.68576407800287897E-002 -0.68732433351885577E-002 -0.84778710574771893E-002  0.15453860030577268E+000 -0.29767096331474724E-003  0.19688717914303420E-005  0.63384960958365148E-003  0.39666321683395640E-002 -0.17398726528092690E-002 -0.49545448413864266E-002 -0.21727107928857251E-001  0.30534276307904836E-004  0.23584795743843078E-006 -0.98686765384192965E-004 -0.55257042922823038E-003  0.28020699703807208E-003  0.69126143764264964E-003  0.32345011707158727E-002 -0.45253209128225767E-005 -0.36013057127988268E-007  0.14707603322882676E-004  0.82251233046620612E-004 -0.41774507594423447E-004 
-0.10289857206660949E-003  0.21483139839532855E+000 -0.10531262008585336E-004 -0.51415958241785984E-004  0.10963933625415495E-002  0.42820918480819545E-002  0.19304926450052500E-002  0.48797000467679026E-003  0.37473426724428138E+000  0.47528079834345164E-003  0.15578876465992039E-003  0.12689781260521208E-002  0.71920952495494583E-002  </sparseX_slice>
        <sparseX_slice start="251" end="300">  0.59698147597957215E-002  0.28859289342970567E-002  0.21819551608769205E+000 -0.69851590377497085E-004  0.47172576153850373E-005  0.54059888137040889E-005  0.26669269166595535E-004 -0.72552797801503415E-004 -0.89171992050359034E-004  0.97873150674329640E-001 -0.15075735310321244E-002  0.22004990620450888E-004 -0.39554086897347168E-004  0.12617874673469926E-002 -0.30701839362043022E-002 -0.51750013756115872E-002  0.28052586428481130E+000 -0.38685016518864085E-002 -0.29930656853878292E-004 -0.19141486676315370E-003  0.39917390476946523E-002 -0.83027295100796972E-002 -0.16549765130036569E-001  0.11853677611191615E+000 -0.84145373962091154E-003 -0.17052145345149107E-003 -0.16680847400609157E-003  0.23099072942706026E-002 -0.19168419740168601E-002 -0.96847777939228497E-002 -0.16665488900679436E-001  0.12741563341690516E-003  0.24097717389202408E-004  0.25077054159073016E-004 -0.32273742792386602E-003  0.31512828694697071E-003  0.13505329303250672E-002  
0.24809810645900891E-002 -0.18981839817210701E-004 -0.35875334825476132E-005 -0.37371446944757546E-005  0.48041545428231175E-004 -0.46990149975310968E-004 -0.20103408339370473E-003  0.16478356425521271E+000 -0.71371160478325539E-003 -0.33890458676009364E-003 -0.33406213666176926E-002  0.75189678893946828E-003  0.25062156579537241E-002  </sparseX_slice>
        <sparseX_slice start="301" end="350">  0.99294577108261493E-003  0.40649437792195997E+000  0.19449800523437836E-002  0.92100524473033563E-003 -0.11126911021231770E-002  0.27214503951421679E-002  0.12161686494333326E-001  0.87093454356735062E-002  0.22047313753461226E+000  0.72382795803009083E-002  0.31254467296319296E-002  0.11717891000699041E-001  0.22858199669675400E-002  0.13789178127163659E-001  0.13418607753586923E-001  0.83221256172040965E-002 -0.89927221538598225E-004 -0.76922532792761146E-005 -0.95351430519506064E-005 -0.23613888455824734E-004  0.14035651746495105E-004 -0.91029239399821214E-005  0.37329486373861367E-002 -0.19707809085067283E-002 -0.18840857851280723E-003 -0.46773066160852960E-003 -0.10544533978712359E-002  0.65280969906148802E-003 -0.52221033071078856E-003  0.10699447556542322E-001 -0.47036762732356515E-002 -0.45366210518884892E-003 -0.13635867703800917E-002 -0.33095627469082326E-002  0.18784197076063360E-002 -0.16654030219204281E-002  0.45210733875269077E-002 
-0.12812009824965344E-003 -0.10734151292165988E-004 -0.53761327601333062E-003 -0.18781240727050420E-002  0.69366680090369916E-003 -0.96632585194645878E-003 -0.63563309911389236E-003  0.41053566012191538E-004  0.42238839759914651E-005  0.80715719719465559E-004  0.26042200654116177E-003 -0.10443865795338594E-003  0.13445495902533706E-003  </sparseX_slice>
        <sparseX_slice start="351" end="400">  0.94626307834508791E-004 -0.61509910151587587E-005 -0.63342729032134433E-006 -0.12025126878829611E-004 -0.38762550344914375E-004  0.15559270140496938E-004 -0.20013915986324818E-004  0.62849573903771784E-002 -0.48700286195880115E-003 -0.65101320194815687E-005 -0.17093904507007335E-002 -0.28972620567080348E-002 -0.28896614239995710E-003  0.14130171906774752E-003  0.15503972475741484E-001  0.41295363270939819E-003  0.25779870978028137E-003 -0.86382969789731642E-003 -0.63655724661915818E-002 -0.30281654136511135E-003  0.15259831710350018E-002  0.11892115695146680E-001  0.44766270228166396E-002  0.95797624568063613E-003  0.77653191351106385E-002 -0.22060390036034868E-003  0.12288894580379829E-002  0.36634666559748953E-002  0.32072482228033777E-003  0.18883086528108817E-002  0.49142008242157044E-003  0.29004949118510660E-002  0.35868342194112835E-002  0.11014786673628535E-002  0.78929068378416373E-003 -0.10259006089302085E-002  0.12925141147510417E-004  
0.10642954382992242E-005  0.14474550155441256E-005  0.34553678861057446E-005 -0.21030946283509946E-005  0.12655865875675431E-005 -0.46017501493641658E-003  0.28317250868133061E-003  0.25878960981231153E-004  0.69047091719704739E-004  0.15475094705596910E-003 -0.97531056631096485E-004  0.72549487189548198E-004 -0.13189622781927309E-002  </sparseX_slice>
        <sparseX_slice start="401" end="450">  0.67575936896809951E-003  0.61899171407391141E-004  0.19999430767073884E-003  0.48595275137839944E-003 -0.28014746380171731E-003  0.23144661343804071E-003 -0.55733020079553404E-003  0.18218239913970124E-004  0.46338727054980281E-006  0.76399054435901111E-004  0.27614645303200780E-003 -0.10239345099216814E-003  0.13446853689522904E-003  0.78356950307151987E-004 -0.58717987443084504E-005 -0.44377103457922961E-006 -0.11502063456645730E-004 -0.38302996797314788E-004  0.15432379064589953E-004 -0.18703164913639673E-004 -0.11664950914410016E-004  0.87978811788085806E-006  0.66710594444840889E-007  0.17136463633997355E-005  0.57012337639332341E-005 -0.22991442845307282E-005  0.27839950956643386E-005 -0.77477100328299871E-003  0.69933945024990184E-004  0.19007124387041091E-005  0.25355886784437208E-003  0.42373022344761987E-003  0.44422658695405426E-004 -0.19945201019267932E-004 -0.19112346454876047E-002 -0.59357497589865661E-004 -0.38465438663142430E-004  
0.13057299237942608E-003  0.93054668826559163E-003  0.54849317582636793E-004 -0.21854324496415052E-003 -0.14659870920355356E-002 -0.64320999231865341E-003 -0.14557610977372997E-003 -0.11424649138658440E-002  0.32234451779769407E-004 -0.16165707275563027E-003 -0.52584968613408987E-003 -0.55913746312808175E-004 -0.38405958715058490E-003  </sparseX_slice>
        <sparseX_slice start="451" end="500"> -0.98401998384579513E-004 -0.60017249477568966E-003 -0.73894687534248901E-003 -0.22390635227531391E-003 -0.15916042523326428E-003  0.48738775572543706E-005  0.39057934308467387E-004  0.98781064888709228E-005  0.62140067131130812E-004  0.76145448551234103E-004  0.22787646975406385E-004  0.16072209323303870E-004  0.15243991064839879E-003 -0.19246643757662984E-005 -0.15840920757499498E-006 -0.21567953812050320E-006 -0.51464943696332029E-006  0.31333227748316884E-006 -0.18837009619958777E-006  0.68378006162490862E-004 -0.42166674722684119E-004 -0.38513964878689353E-005 -0.10284998995104681E-004 -0.23049753592179421E-004  0.14530250015356262E-004 -0.10798178419221902E-004  0.19598632663448055E-003 -0.10062578953358686E-003 -0.92111887848091257E-005 -0.29788086559286055E-004 -0.72381860213656651E-004  0.41735641180393860E-004 -0.34448385904080514E-004  0.82814422051585978E-004 -0.27122802884769968E-005 -0.66875833006825510E-007 -0.11374831212344512E-004 
-0.41132264219910896E-004  0.15252284820317011E-004 -0.20014566691123825E-004 -0.11643161530003403E-004  0.87428150629622910E-006  0.65761292980465111E-007  0.17125668069324412E-005  0.57052882264903911E-005 -0.22988027680131140E-005  0.27838034544495280E-005  0.17333102833079521E-005 -0.13099613561182162E-006 -0.98861070373259620E-008  </sparseX_slice>
        <sparseX_slice start="501" end="547"> -0.25514856935305096E-006 -0.84920726521330656E-006  0.34247993147362980E-006 -0.41437343717936161E-006  0.11512423473126651E-003 -0.10413551106869285E-004 -0.28474863115228728E-006 -0.37771194669919631E-004 -0.63110730754213919E-004 -0.66204142306132386E-005  0.29692581246714966E-005  0.28399285081823629E-003  0.88383375296776194E-005  0.57302654297133066E-005 -0.19455315023969004E-004 -0.13859587158489980E-003 -0.81893759200008307E-005  0.32540587313350084E-004  0.21783293564338444E-003  0.95776998191149853E-004  0.21691237834637312E-004  0.17016882801359912E-003 -0.48017203025274824E-005  0.24042782408136084E-004  0.78300069765684636E-004  0.83082965520703409E-005  0.57189418856206661E-004  0.14649953994618122E-004  0.89389128897529336E-004  0.11005384087712757E-003  0.33341321904249816E-004  0.23697527615871952E-004 -0.10241958465901249E-005 -0.82251064146978120E-005 -0.20798650981213955E-005 -0.13088781369931577E-004 -0.16038097164957261E-004 
-0.47988597865312611E-005 -0.33842829283207301E-005  0.10761217530086957E-006  0.86605163709989130E-006  0.21896102047983738E-006  0.13784682261988301E-005  0.16890082016803445E-005  0.50529701584476441E-006  0.35630986714269094E-006  0.00000000000000000E+000  </sparseX_slice>
      </sparseX>
      <sparseX i="4" alpha="-154.70343312174700" sparseCutoff="1.0000000000000000" sliced="T">
        <sparseX_slice start="1" end="50">  0.10797088212545271E+000  0.41013080539173650E-005  0.24181226241181489E-006  0.16830426762251831E-005  0.50554234074128843E-006  0.81815245435290501E-006  0.78132148708775373E-006  0.68491705513134535E-001  0.12912261045809641E-003  0.47663666494906272E-005  0.69742648990253015E-004  0.29561823192084191E-004  0.49309828137047373E-004  0.65229234189758211E-004  0.21723976093143700E-001  0.20355304608264740E-002  0.62578603225985706E-004  0.14655677123373073E-002  0.95250847219763074E-003  0.14952599194750578E-002  0.27269048767171312E-002  0.19631233954441152E+000  0.30061648267530177E-003  0.69554813483227503E-005  0.18245844110925712E-003  0.89057854169467997E-004  0.13621491232711127E-003  0.21035568433907132E-003  0.88057009450119517E-001  0.67040994123899640E-002  0.18140417692686265E-003  0.54520336144675049E-002  0.41993326992791789E-002  0.58762157613964049E-002  0.12449195999448283E-001  0.17846725848095746E+000  0.11052588067147939E-001  
0.32941192950230856E-003  0.10163914292597295E-001  0.93618078182437815E-002  0.11621929256869262E-001  0.28440175583119520E-001  0.82952372683514630E-001 -0.13239879833621999E-004 -0.99195854021535316E-005  0.36914364876076442E-004  0.43311884354648871E-004  0.38430647160727551E-004  0.12653449106339262E-003  0.37208755609830550E-001  </sparseX_slice>
        <sparseX_slice start="51" end="100"> -0.29197777885496507E-003 -0.64759406564526180E-004  0.11635831433383578E-002  0.23131370342315567E-002  0.17376439100981740E-002  0.75139140285676691E-002  0.10664850306437915E+000 -0.63367500907373752E-003  0.82578917608409756E-004  0.31345263430934216E-002  0.75690655893651017E-002  0.51058639296532220E-002  0.24340690463567370E-001  0.31865517806131616E-001  0.10786526277711803E-003  0.38232646626723500E-003  0.58089912762292293E-003  0.34193615692304047E-002  0.15188824803964202E-002  0.10508222947843491E-001 -0.11662556549057852E-001  0.69668747319042367E-007  0.13087964365765349E-005 -0.58182850114489061E-005 -0.60876765544508998E-005 -0.59787907121765687E-005 -0.17623016252371607E-004 -0.52313056562631917E-002  0.10328828961313302E-005  0.77974969333022994E-005 -0.18234261940261768E-003 -0.32427893407895915E-003 -0.26793899473948735E-003 -0.10461349617935508E-002 -0.14994076210527424E-001 -0.36660091602035898E-005 -0.13748820000922845E-004 
-0.49001764907322391E-003 -0.10601769489638256E-002 -0.77997812359357750E-003 -0.33878045812333044E-002 -0.63357922418285344E-002 -0.16160623647037652E-004 -0.73812166779249337E-004 -0.12599279255009251E-003 -0.67562094330777384E-003 -0.31214332736567219E-003 -0.20662392828018007E-002  0.62986993614599907E-003  0.14849562432924214E-005  </sparseX_slice>
        <sparseX_slice start="101" end="150">  0.71350791106939592E-005  0.13691392644348045E-004  0.66757132522965364E-004  0.32317356143194826E-004  0.20317126053772563E-003  0.17361976079303492E-002 -0.72463006910053777E-008 -0.19467863874181097E-006  0.86723383952298638E-006  0.90626532581912005E-006  0.89103467610145710E-006  0.26232371221418009E-005  0.77878124993875262E-003 -0.83962155684494525E-007 -0.11584974642488584E-005  0.27177075368097770E-004  0.48272973415783899E-004  0.39927889030251197E-004  0.15571959283783505E-003  0.22321588873192720E-002  0.70745492094887347E-006  0.20502439861404097E-005  0.73032299561289431E-004  0.15781846699602074E-003  0.11621962647770068E-003  0.50428065616712982E-003  0.94320548743620058E-003  0.23963358783819985E-005  0.10983748663565776E-004  0.18774083656231563E-004  0.10056941481670101E-003  0.46484947221309178E-004  0.30755963688053144E-003 -0.13260847132818014E-003 -0.31229794744442911E-006 -0.15015630524428269E-005 -0.28852626074884590E-005 
-0.14053234765183165E-004 -0.68068459573602325E-005 -0.42768763259139601E-004  0.13959236390606765E-004  0.32840552939142551E-007  0.15800049323734038E-006  0.30401371706458358E-006  0.14791933427100916E-005  0.71684694119475573E-006  0.45015400788488049E-005  0.11531580819249028E+000  0.21305155730995177E-004 -0.18597705051415587E-005  </sparseX_slice>
        <sparseX_slice start="151" end="200">  0.16587776380273126E-004  0.17134623665494064E-004 -0.14876957717769683E-004 -0.65220463120459336E-005  0.51725557523892046E-001  0.47433647375087968E-003 -0.29702040685161889E-004  0.52565981285161169E-003  0.79862609112182122E-003 -0.64525673772807717E-003 -0.37937989017220830E-003  0.14825686023845619E+000  0.11241416742854343E-002 -0.54783345698240325E-004  0.13990525697210219E-002  0.25256726908562022E-002 -0.17714596338229357E-002 -0.12114491713911323E-002  0.62646384592680876E-001  0.47750701257259396E-005  0.34661090344862741E-004  0.32420607638976827E-003  0.14634273681241941E-002 -0.46932859976726843E-003 -0.70485340201431016E-003 -0.88076685364222862E-002 -0.66860401622265701E-005 -0.44265504141362080E-005 -0.50520142582706856E-004 -0.20375995976025881E-003  0.74837214148640622E-004  0.98453874699336956E-004  0.13111921884413165E-002  0.10057187306092407E-005  0.65818409787629266E-006  0.75294574793685806E-005  0.30329932318114031E-004 
-0.11155984767400819E-004 -0.14655665377479364E-004  0.61580193461957658E-001  0.72062919209983807E-004  0.29015716767198426E-004  0.79044618568605593E-003  0.13193831950028543E-002  0.33964693358649227E-003  0.45962475376387680E-004  0.28446572553040744E+000  0.26759141469042202E-004 -0.63259924760584678E-006  0.35237825591056594E-004  </sparseX_slice>
        <sparseX_slice start="201" end="250">  0.46531046309480053E-004 -0.58564158195747697E-004 -0.45650625060759145E-004  0.12759870897264378E+000  0.60963816442512176E-003 -0.21304674324845797E-004  0.10589796387284094E-002  0.21693841491775582E-002 -0.25168180466968401E-002 -0.26518508559534239E-002  0.36572605242634165E+000  0.13352668281486231E-002 -0.51320354786227005E-004  0.28022523921890558E-002  0.68576174637501128E-002 -0.68732744177839025E-002 -0.84778657887516328E-002  0.15453864933476177E+000 -0.29766923034253831E-003  0.19572558748470284E-005  0.63387261073665174E-003  0.39666194496479623E-002 -0.17398966351826113E-002 -0.49545533130270656E-002 -0.21727114952552286E-001  0.30533925865632792E-004  0.23737024895297230E-006 -0.98689948272154894E-004 -0.55256858024862055E-003  0.28021033023688810E-003  0.69126264476239365E-003  0.32345022164884064E-002 -0.45252685611635446E-005 -0.36239481251626114E-007  0.14708077072529913E-004  0.82250957693776923E-004 -0.41775003733010963E-004 
-0.10289875178474042E-003  0.21483109727318836E+000 -0.10528900033975020E-004 -0.51414543439072693E-004  0.10964097775828180E-002  0.42820864278939209E-002  0.19304979031566096E-002  0.48796975745982115E-003  0.37473412927903227E+000  0.47529070067128007E-003  0.15579115304670843E-003  0.12689989985892635E-002  0.71920937436015095E-002  </sparseX_slice>
        <sparseX_slice start="251" end="300">  0.59698424961091463E-002  0.28859288092248692E-002  0.21819610297030792E+000 -0.69849956686879295E-004  0.47180653913118251E-005  0.54055675299161845E-005  0.26669001327427753E-004 -0.72552960281075055E-004 -0.89171660097711047E-004  0.97873095220736020E-001 -0.15075516232311800E-002  0.22013630030632846E-004 -0.39567983856342461E-004  0.12617840649500223E-002 -0.30701971011983958E-002 -0.51749964755890467E-002  0.28052588495626057E+000 -0.38684663340194728E-002 -0.29923493426456586E-004 -0.19145075942838429E-003  0.39917379435301433E-002 -0.83027759736475342E-002 -0.16549764017964645E-001  0.11853706094211190E+000 -0.84148956256150200E-003 -0.17055161645911795E-003 -0.16681380413668807E-003  0.23099244658661743E-002 -0.19168774952502932E-002 -0.96848044446086329E-002 -0.16665529046057465E-001  0.12742013557761180E-003  0.24101632571515766E-004  0.25078140220992721E-004 -0.32273968381287135E-003  0.31513318853490708E-003  0.13505366802351762E-002  
0.24809870411300326E-002 -0.18982509131124113E-004 -0.35881157655965013E-005 -0.37373069373096772E-005  0.48041880977895001E-004 -0.46990879502836759E-004 -0.20103464161510144E-003  0.16478367695947327E+000 -0.71368482336231162E-003 -0.33889828177051726E-003 -0.33406307503461392E-002  0.75190511940917849E-003  0.25062269288091609E-002  </sparseX_slice>
        <sparseX_slice start="301" end="350">  0.99294542002338767E-003  0.40649507605755575E+000  0.19450104863817977E-002  0.92100657601491159E-003 -0.11127044369019857E-002  0.27214694184032576E-002  0.12161758590482019E-001  0.87093492443871268E-002  0.22047397601193577E+000  0.72382388905134184E-002  0.31254258653612447E-002  0.11717904800248516E-001  0.22858241638838580E-002  0.13789269057474497E-001  0.13418621698657403E-001  0.83221663357639624E-002 -0.89926923025392588E-004 -0.76921359722382789E-005 -0.95357096328308684E-005 -0.23613913252508775E-004  0.14035811880481450E-004 -0.91029184788106402E-005  0.37329547463726674E-002 -0.19707886858823459E-002 -0.18840772011172291E-003 -0.46774608084194642E-003 -0.10544508617812017E-002  0.65281817434622745E-003 -0.52221357791475370E-003  0.10699471916833800E-001 -0.47037084373350779E-002 -0.45366238206091120E-003 -0.13636253344027551E-002 -0.33095505566072460E-002  0.18784443949800345E-002 -0.16654176652521752E-002  0.45210942115088346E-002 
-0.12814846028172088E-003 -0.10739323029927777E-004 -0.53761718312438881E-003 -0.18781092482817090E-002  0.69367631549531721E-003 -0.96634256609417688E-003 -0.63563603064748268E-003  0.41057611197560021E-004  0.42245443415048924E-005  0.80716471121779464E-004  0.26042001156379775E-003 -0.10444009636749396E-003  0.13445726433838610E-003  </sparseX_slice>
        <sparseX_slice start="351" end="400">  0.94626744254770956E-004 -0.61515933082606096E-005 -0.63352548695817899E-006 -0.12025239084697529E-004 -0.38762253511042690E-004  0.15559484448914257E-004 -0.20014259091593363E-004  0.62849755353428377E-002 -0.48699102868670740E-003 -0.65091195863442467E-005 -0.17094048752503679E-002 -0.28972633139836522E-002 -0.28896880372928328E-003  0.14130233447222140E-003  0.15504033259844008E-001  0.41296948141908684E-003  0.25779763000997240E-003 -0.86385210258031059E-003 -0.63655786996430564E-002 -0.30282545417246629E-003  0.15259913464013830E-002  0.11892187121356351E-001  0.44766174365191745E-002  0.95797164144715435E-003  0.77653393348652454E-002 -0.22060924097961493E-003  0.12288839182352756E-002  0.36634884949980477E-002  0.32072745520246240E-003  0.18883239209329617E-002  0.49142616239701022E-003  0.29005075856622562E-002  0.35868428530081262E-002  0.11014868769464732E-002  0.78929777946373238E-003 -0.10259057847989493E-002  0.12925096992225667E-004  
0.10642786785801109E-005  0.14475385116035082E-005  0.34553716605259707E-005 -0.21031181381754063E-005  0.12655857459567159E-005 -0.46017583813948816E-003  0.28317360535126115E-003  0.25878851396768257E-004  0.69049390374553479E-004  0.15475056741203215E-003 -0.97532304873000530E-004  0.72549944788236482E-004 -0.13189654821728649E-002  </sparseX_slice>
        <sparseX_slice start="401" end="450">  0.67576394227345730E-003  0.61899254708699944E-004  0.20000009458181434E-003  0.48595094187233221E-003 -0.28015110472886541E-003  0.23144867980327960E-003 -0.55733285277843186E-003  0.18222313555697550E-004  0.46415290309439137E-006  0.76399726030130586E-004  0.27614427628437665E-003 -0.10239486460905949E-003  0.13447089879813632E-003  0.78357323629248599E-004 -0.58723797216794554E-005 -0.44386924686919840E-006 -0.11502187415635900E-004 -0.38302703041197843E-004  0.15432592756629300E-004 -0.18703490907563820E-004 -0.11665006491215325E-004  0.87987462032141987E-006  0.66725199481115936E-007  0.17136648674833021E-005  0.57011900543610133E-005 -0.22991761222923542E-005  0.27840436144830281E-005 -0.77477335814824151E-003  0.69932230039856271E-004  0.19005536569412356E-005  0.25356097546791055E-003  0.42373039266299547E-003  0.44423048454137273E-004 -0.19945283377810549E-004 -0.19112424298269163E-002 -0.59359796868280345E-004 -0.38465328404640692E-004  
0.13057632004887077E-003  0.93054760228987031E-003  0.54850656013114692E-004 -0.21854438179922205E-003 -0.14659961204189363E-002 -0.64320860500354123E-003 -0.14557550495591717E-003 -0.11424677335739851E-002  0.32235304292449527E-004 -0.16165617898610202E-003 -0.52585275293980799E-003 -0.55914213845383181E-004 -0.38406270566008647E-003  </sparseX_slice>
        <sparseX_slice start="451" end="500"> -0.98403251448981130E-004 -0.60017513524600330E-003 -0.73894868081753322E-003 -0.22390806135003002E-003 -0.15916185823252273E-003  0.48739190537549533E-005  0.39058252844971784E-004  0.98782356206301787E-005  0.62140342157692138E-004  0.76145637204394132E-004  0.22787824810041373E-004  0.16072354067912438E-004  0.15244068006059383E-003 -0.19246577983572853E-005 -0.15840671212707208E-006 -0.21569197506914313E-006 -0.51464999938676002E-006  0.31333577912446632E-006 -0.18836997075176107E-006  0.68378128628239273E-004 -0.42166837985352450E-004 -0.38513801960307607E-005 -0.10285341433443436E-004 -0.23049697034043510E-004  0.14530435941916084E-004 -0.10798246539002831E-004  0.19598680313347082E-003 -0.10062647044033601E-003 -0.92112012705368179E-005 -0.29788948723204371E-004 -0.72381590665348037E-004  0.41736183509668617E-004 -0.34448693518091905E-004  0.82814816288715004E-004 -0.27128868798390677E-005 -0.66989881555351512E-007 -0.11374931422769018E-004 
-0.41131940007433162E-004  0.15252495405475420E-004 -0.20014918310254555E-004 -0.11643217027099200E-004  0.87436801751192762E-006  0.65775923522609142E-007  0.17125852950490145E-005  0.57052444719507658E-005 -0.22988346014240238E-005  0.27838519859254067E-005  0.17333185452118203E-005 -0.13100901637382551E-006 -0.98882827299106224E-008  </sparseX_slice>
        <sparseX_slice start="501" end="547"> -0.25515132917168279E-006 -0.84920075473456988E-006  0.34248467430120920E-006 -0.41438066028969850E-006  0.11512458488777685E-003 -0.10413295709264284E-004 -0.28472496394927070E-006 -0.37771508572396430E-004 -0.63110755931013597E-004 -0.66204722814132904E-005  0.29692703768592321E-005  0.28399400810530964E-003  0.88386799437612721E-005  0.57302490902687989E-005 -0.19455810737399350E-004 -0.13859600772698046E-003 -0.81895753300290680E-005  0.32540756521579977E-004  0.21783427764436537E-003  0.95776791591489053E-004  0.21691147872145480E-004  0.17016924772274571E-003 -0.48018474113357271E-005  0.24042649131613290E-004  0.78300526292249086E-004  0.83083660409557831E-005  0.57189883251096208E-004  0.14650140615747128E-004  0.89389522196270933E-004  0.11005410981913080E-003  0.33341576472441050E-004  0.23697740980734118E-004 -0.10242045688289201E-005 -0.82251734981751502E-005 -0.20798922960376987E-005 -0.13088839303501633E-004 -0.16038136906305162E-004 
-0.47988972469380656E-005 -0.33843134069908338E-005  0.10761309197388801E-006  0.86605870095756107E-006  0.21896388471191023E-006  0.13784743279703577E-005  0.16890123876016714E-005  0.50530096131354020E-006  0.35631307606834887E-006  0.00000000000000000E+000  </sparseX_slice>
      </sparseX>
      <sparseX i="5" alpha="145.15739223174478" sparseCutoff="1.0000000000000000" sliced="T">
        <sparseX_slice start="1" end="50">  0.10797090008652285E+000  0.41013543635863365E-005  0.24182427610391880E-006  0.16830386031638500E-005  0.50554941745378379E-006  0.81816773429724696E-006  0.78132127541110906E-006  0.68491761602140516E-001  0.12912363977296801E-003  0.47666190087318116E-005  0.69742164893464711E-004  0.29561966895060030E-004  0.49310680956544401E-004  0.65229129247581911E-004  0.21724008059603107E-001  0.20355406383765653E-002  0.62581660674637492E-004  0.14655532186184995E-002  0.95250876671639667E-003  0.14952836984545575E-002  0.27268971958742836E-002  0.19631245621925580E+000  0.30061864799987105E-003  0.69559540591873640E-005  0.18245685341833535E-003  0.89058009407269804E-004  0.13621731244817402E-003  0.21035530062730198E-003  0.88057119248289947E-001  0.67041275543494802E-002  0.18141271036520781E-003  0.54519736722633489E-002  0.41993280017514735E-002  0.58763103666649103E-002  0.12449159035745987E-001  0.17846744093063133E+000  0.11052624181967485E-001  
0.32942335746409800E-003  0.10163793986260584E-001  0.93617889520090317E-002  0.11622116853289127E-001  0.28440087803095492E-001  0.82952381148212795E-001 -0.13240349343830812E-004 -0.99198440922943970E-005  0.36913388105660427E-004  0.43311435312223272E-004  0.38431453349578084E-004  0.12653418643561898E-003  0.37208783687875252E-001  </sparseX_slice>
        <sparseX_slice start="51" end="100"> -0.29198858225741050E-003 -0.64763198606800442E-004  0.11635581611655057E-002  0.23131234176043463E-002  0.17376756073074057E-002  0.75138888723380818E-002  0.10664855959069812E+000 -0.63370473077023026E-003  0.82569249681436227E-004  0.31344648538128711E-002  0.75690285902880851E-002  0.51059508281130492E-002  0.24340608922406567E-001  0.31865519008567017E-001  0.10785748064034788E-003  0.38232428270652997E-003  0.58089594138047585E-003  0.34193539758768650E-002  0.15188992862913040E-002  0.10508188893046694E-001 -0.11662555920701123E-001  0.69721926455763935E-007  0.13088304459349972E-005 -0.58181456624155172E-005 -0.60876149000651099E-005 -0.59789101917246204E-005 -0.17622970986953986E-004 -0.52313087881801735E-002  0.10341948966494478E-005  0.77979603056189143E-005 -0.18233899935689155E-003 -0.32427705998869856E-003 -0.26794370281299604E-003 -0.10461312830068840E-002 -0.14994081819862750E-001 -0.36622959969644363E-005 -0.13747658678426649E-004 
-0.49000867610669071E-003 -0.10601718458347776E-002 -0.77999108544628151E-003 -0.33877926379334137E-002 -0.63357914930246900E-002 -0.16159059019914165E-004 -0.73811810689033213E-004 -0.12599199972868983E-003 -0.67561943800300834E-003 -0.31214700116477588E-003 -0.20662321782659266E-002  0.62986976349407354E-003  0.14848006000377684E-005  </sparseX_slice>
        <sparseX_slice start="101" end="150">  0.71350519057276471E-005  0.13691297843726202E-004  0.66756983587770919E-004  0.32317755274324333E-004  0.20317052232216823E-003  0.17361975113678496E-002 -0.72541963666538602E-008 -0.19468369742071114E-006  0.86721309178600601E-006  0.90625615082197652E-006  0.89105247281667655E-006  0.26232303797633477E-005  0.77878171483092501E-003 -0.84157136511680236E-007 -0.11585663245062742E-005  0.27176536277268217E-004  0.48272694512577475E-004  0.39928590322644603E-004  0.15571904495920538E-003  0.22321597184956181E-002  0.70690290535188640E-006  0.20500714458153998E-005  0.73030963211650750E-004  0.15781770751940996E-003  0.11622155730453176E-003  0.50427887742640956E-003  0.94320537432190563E-003  0.23961029417858282E-005  0.10983695790364784E-004  0.18773965343037018E-004  0.10056919073228910E-003  0.46485494691744463E-004  0.30755857869805138E-003 -0.13260843474861549E-003 -0.31226518130802821E-006 -0.15015573451539822E-005 -0.28852426082036207E-005 
-0.14053203411331409E-004 -0.68069300672575962E-005 -0.42768607768115804E-004  0.13959232515725665E-004  0.32837103966957349E-007  0.15799989458401201E-006  0.30401160753293893E-006  0.14791900424028618E-005  0.71685580353242633E-006  0.45015237032469975E-005  0.11531573315934092E+000  0.21305782963048749E-004 -0.18599086399556650E-005  </sparseX_slice>
        <sparseX_slice start="151" end="200">  0.16587492369416162E-004  0.17134541406995684E-004 -0.14877005521565916E-004 -0.65220382293331288E-005  0.51725557621646455E-001  0.47434729439659647E-003 -0.29705230308643902E-004  0.52564964832785060E-003  0.79862687216779760E-003 -0.64525976146302764E-003 -0.37937880322564543E-003  0.14825682722254174E+000  0.11241656662301022E-002 -0.54791127216505367E-004  0.13990232801824906E-002  0.25256796825995739E-002 -0.17714700966053412E-002 -0.12114451731319727E-002  0.62646339801553083E-001  0.47726275364300105E-005  0.34660523590309567E-004  0.32419426231335846E-003  0.14634396488162943E-002 -0.46933632263630748E-003 -0.70485011028632231E-003 -0.88076608657857488E-002 -0.66858127444314134E-005 -0.44264463417680522E-005 -0.50518459717363935E-004 -0.20376162821210490E-003  0.74838318682854646E-004  0.98453403712601273E-004  0.13111910442380893E-002  0.10056850645399221E-005  0.65816856334264801E-006  0.75292069119633162E-005  0.30330180593456638E-004 
-0.11156149217723060E-004 -0.14655595251191507E-004  0.61580103080645543E-001  0.72067771676719865E-004  0.29016491140655402E-004  0.79043465730142034E-003  0.13193864716197496E-002  0.33964696646479955E-003  0.45962377512427851E-004  0.28446565048195133E+000  0.26758898766848550E-004 -0.63306173992459124E-006  0.35237466846962003E-004  </sparseX_slice>
        <sparseX_slice start="201" end="250">  0.46531006493738963E-004 -0.58564337637774852E-004 -0.45650631856842610E-004  0.12759875857574104E+000  0.60963563809572293E-003 -0.21315213361460049E-004  0.10589657447702360E-002  0.21693899468446794E-002 -0.25168294841498191E-002 -0.26518451678923601E-002  0.36572611246355674E+000  0.13352673115320233E-002 -0.51345897396804535E-004  0.28022101985343607E-002  0.68576435028214261E-002 -0.68733130922358733E-002 -0.84778417911605796E-002  0.15453859862589467E+000 -0.29765355115541812E-003  0.19557855558941087E-005  0.63385102189387381E-003  0.39666486221362944E-002 -0.17399233865135041E-002 -0.49545284833459368E-002 -0.21727104435507971E-001  0.30531871201867554E-004  0.23774344917896192E-006 -0.98686986562704791E-004 -0.55257256004967632E-003  0.28021422047938072E-003  0.69125910346339882E-003  0.32345006451973803E-002 -0.45249629630868466E-005 -0.36295310085147214E-007  0.14707636284772033E-004  0.82251549947364323E-004 -0.41775583043164108E-004 
-0.10289822453692276E-003  0.21483086507331808E+000 -0.10536427953676777E-004 -0.51413715964879204E-004  0.10963947136625417E-002  0.42821003855137351E-002  0.19304976879110348E-002  0.48796934164159749E-003  0.37473386921510154E+000  0.47527611401225375E-003  0.15578775409972053E-003  0.12689904639668712E-002  0.71921217335035878E-002  </sparseX_slice>
        <sparseX_slice start="251" end="300">  0.59698413288003863E-002  0.28859260520839587E-002  0.21819617954948708E+000 -0.69854112164232342E-004  0.47174860155202509E-005  0.54061973094133651E-005  0.26669364741330870E-004 -0.72553160935520656E-004 -0.89171738867128346E-004  0.97873193439397446E-001 -0.15076156800727040E-002  0.22000167662150195E-004 -0.39551449199837593E-004  0.12617955284409616E-002 -0.30702106400988089E-002 -0.51749868678962630E-002  0.28052610347096107E+000 -0.38685880184685935E-002 -0.29956371147158928E-004 -0.19141197241165768E-003  0.39917689070808823E-002 -0.83028209591002843E-002 -0.16549719070978283E-001  0.11853709492155808E+000 -0.84142620767341128E-003 -0.17055396287800687E-003 -0.16681625468875486E-003  0.23099328028260576E-002 -0.19169068440296859E-002 -0.96847515449972610E-002 -0.16665531224837091E-001  0.12741227406437529E-003  0.24102325010342821E-004  0.25078152049652524E-004 -0.32274088637872982E-003  0.31513754228076831E-003  0.13505291582339800E-002  
0.24809873611689290E-002 -0.18981340594165949E-004 -0.35882194275442442E-005 -0.37373081227484059E-005  0.48042060066784322E-004 -0.46991527974972530E-004 -0.20103352174164025E-003  0.16478360016013063E+000 -0.71374784334433071E-003 -0.33889992953078886E-003 -0.33405813686746273E-002  0.75191499884722369E-003  0.25062258844045140E-002  </sparseX_slice>
        <sparseX_slice start="301" end="350">  0.99294486648137553E-003  0.40649504385960977E+000  0.19449875969706606E-002  0.92099645278203820E-003 -0.11126484070447557E-002  0.27214930982655252E-002  0.12161754503505344E-001  0.87093396664955185E-002  0.22047409409313024E+000  0.72384377968170831E-002  0.31254188516310795E-002  0.11717832391240860E-001  0.22858290476774762E-002  0.13789264474448249E-001  0.13418603483319400E-001  0.83221944079927678E-002 -0.89928048991468594E-004 -0.76923168863576678E-005 -0.95353061234611894E-005 -0.23613755355944625E-004  0.14035883590387764E-004 -0.91029753953744298E-005  0.37329697743356412E-002 -0.19707991628650947E-002 -0.18841310051858444E-003 -0.46774043535180806E-003 -0.10544499566735688E-002  0.65282104208701155E-003 -0.52221283910299507E-003  0.10699512587352817E-001 -0.47037193168647465E-002 -0.45367677457728856E-003 -0.13636178651423262E-002 -0.33095552489318890E-002  0.18784530538486738E-002 -0.16654105043607012E-002  0.45211091712637520E-002 
-0.12811977971875779E-003 -0.10742952882003681E-004 -0.53763101555546447E-003 -0.18781260971647653E-002  0.69368058804463004E-003 -0.96632921527084806E-003 -0.63563803478104534E-003  0.41053803436085736E-004  0.42251962510732174E-005  0.80718324644779411E-004  0.26042222691400105E-003 -0.10444073410704018E-003  0.13445540127958428E-003  </sparseX_slice>
        <sparseX_slice start="351" end="400">  0.94627042444333801E-004 -0.61510268314261275E-005 -0.63362276047690225E-006 -0.12025514842660797E-004 -0.38762583041861230E-004  0.15559579438703126E-004 -0.20013981781787226E-004  0.62849916007375805E-002 -0.48701662941886089E-003 -0.65047001774804488E-005 -0.17093845801601781E-002 -0.28972720748393558E-002 -0.28896949827958586E-003  0.14130189392530599E-003  0.15504078888411373E-001  0.41295118483015378E-003  0.25781490732047687E-003 -0.86381827362997678E-003 -0.63656043441026391E-002 -0.30282783792227066E-003  0.15259871832716636E-002  0.11892229431404965E-001  0.44766932595612895E-002  0.95799345364465263E-003  0.77653322005078532E-002 -0.22062373827405060E-003  0.12288809978308485E-002  0.36634785040888622E-002  0.32072956560019972E-003  0.18883169236045268E-002  0.49142428988288209E-003  0.29005187993775051E-002  0.35868588485197484E-002  0.11014865120596278E-002  0.78929511585260049E-003 -0.10259095768195359E-002  0.12925258635675020E-004  
0.10643041400150771E-005  0.14474788818107611E-005  0.34553491144524234E-005 -0.21031283314845471E-005  0.12655933671929477E-005 -0.46017783936778755E-003  0.28317510105340846E-003  0.25879602183554355E-004  0.69048507960505628E-004  0.15475045868454046E-003 -0.97532711905828424E-004  0.72549816988970765E-004 -0.13189709219150420E-002  </sparseX_slice>
        <sparseX_slice start="401" end="450">  0.67576547809008536E-003  0.61901263021284944E-004  0.19999880124392606E-003  0.48595168326858053E-003 -0.28015233540931521E-003  0.23144760051399708E-003 -0.55733487698766938E-003  0.18218184460276278E-004  0.46466215859574270E-006  0.76401595400067766E-004  0.27614673121314186E-003 -0.10239547575233652E-003  0.13446898829218548E-003  0.78357596002122908E-004 -0.58718312248775567E-005 -0.44396075614930650E-006 -0.11502436998663045E-004 -0.38303026608359764E-004  0.15432683957299109E-004 -0.18703223934780414E-004 -0.11665047018910630E-004  0.87979302049225004E-006  0.66738853906925544E-007  0.17137019974496954E-005  0.57012381860498182E-005 -0.22991897063566268E-005  0.27840038758331815E-005 -0.77477558890410290E-003  0.69935914719483752E-004  0.18999858436911075E-005  0.25355802684475664E-003  0.42373168729999513E-003  0.44423135388300646E-004 -0.19945224547591306E-004 -0.19112486721183349E-002 -0.59357123737668455E-004 -0.38467618768291782E-004  
0.13057141069478036E-003  0.93055136225822413E-003  0.54850955725871922E-004 -0.21854378738337546E-003 -0.14660018097746052E-002 -0.64321938417622761E-003 -0.14557847373818333E-003 -0.11424666832198331E-002  0.32237383093213446E-004 -0.16165579840245108E-003 -0.52585130541650722E-003 -0.55914599827566862E-004 -0.38406119777521520E-003  </sparseX_slice>
        <sparseX_slice start="451" end="500"> -0.98402867692524802E-004 -0.60017744096619620E-003 -0.73895198839012545E-003 -0.22390796595783588E-003 -0.15916131816251692E-003  0.48739542736358700E-005  0.39058090845192579E-004  0.98781964504295789E-005  0.62140579028436131E-004  0.76145979126499073E-004  0.22787812780832235E-004  0.16072299278941969E-004  0.15244124424536806E-003 -0.19246818675514023E-005 -0.15841050254843551E-006 -0.21568309269976960E-006 -0.51464664238687617E-006  0.31333729679351599E-006 -0.18837110455963935E-006  0.68378426317888355E-004 -0.42167060682891164E-004 -0.38514919518543577E-005 -0.10285209902152025E-004 -0.23049680882377727E-004  0.14530496543645249E-004 -0.10798227469739250E-004  0.19598761236201809E-003 -0.10062669907549136E-003 -0.92115002107361626E-005 -0.29788755722589288E-004 -0.72381701185686103E-004  0.41736366745086863E-004 -0.34448532716245302E-004  0.82815117461648019E-004 -0.27122720222446725E-005 -0.67065689918960176E-007 -0.11375209562155422E-004 
-0.41132305624108532E-004  0.15252586406481550E-004 -0.20014633843573228E-004 -0.11643257554598973E-004  0.87428634107697395E-006  0.65789545761529285E-007  0.17126224281229961E-005  0.57052926627430750E-005 -0.22988481814079777E-005  0.27838122340907512E-005  0.17333245755013174E-005 -0.13099686537557015E-006 -0.98903153527485888E-008  </sparseX_slice>
        <sparseX_slice start="501" end="547"> -0.25515685338108032E-006 -0.84920792327735692E-006  0.34248669699865912E-006 -0.41437474326496231E-006  0.11512491690508427E-003 -0.10413844386811189E-004 -0.28464053520006952E-006 -0.37771069442766704E-004 -0.63110948776925850E-004 -0.66204852029218766E-005  0.29692616246098025E-005  0.28399493700337819E-003  0.88382818197940256E-005  0.57305897907908360E-005 -0.19455079610644770E-004 -0.13859656775144181E-003 -0.81896198798266772E-005  0.32540668014627592E-004  0.21783512406699527E-003  0.95778396442156084E-004  0.21691589642202712E-004  0.17016909127396215E-003 -0.48021569552214273E-005  0.24042592534145435E-004  0.78300310721656052E-004  0.83084234339840911E-005  0.57189658551856125E-004  0.14650083464046864E-004  0.89389865579779789E-004  0.11005460244515558E-003  0.33341562228522105E-004  0.23697660561885955E-004 -0.10242119747899479E-005 -0.82251393594561903E-005 -0.20798840466240749E-005 -0.13088889191400338E-004 -0.16038208925682427E-004 
-0.47988947076253003E-005 -0.33843018692786559E-005  0.10761387062835375E-006  0.86605510387978298E-006  0.21896301603134848E-006  0.13784795814729736E-005  0.16890199723563750E-005  0.50530069329563909E-006  0.35631186123609436E-006  0.00000000000000000E+000  </sparseX_slice>
      </sparseX>
      <sparseX i="6" alpha="317.63161217466433" sparseCutoff="1.0000000000000000" sliced="T">
        <sparseX_slice start="1" end="50">  0.10797052297531796E+000  0.41013311055031889E-005  0.24181903943903299E-006  0.16830514009752836E-005  0.50554876196024931E-006  0.81815695147348376E-006  0.78132685075378725E-006  0.68491774112004744E-001  0.12912236963648802E-003  0.47664657767099224E-005  0.69742539779877260E-004  0.29562017226097592E-004  0.49309850451870600E-004  0.65229580515126199E-004  0.21724091871270609E-001  0.20355120962172453E-002  0.62579068152875784E-004  0.14655568456248211E-002  0.95250973142402403E-003  0.14952533717066034E-002  0.27269153937680367E-002  0.19631249052274269E+000  0.30061473336194880E-003  0.69556421703305269E-005  0.18245749273180525E-003  0.89058288783232164E-004  0.13621458720328852E-003  0.21035677832667934E-003  0.88057458278055528E-001  0.67040125457131028E-002  0.18140399613589194E-003  0.54519756112936264E-002  0.41993306604390466E-002  0.58761739535030970E-002  0.12449243242010487E-001  0.17846812663884126E+000  0.11052400013955244E-001  
0.32940701011034180E-003  0.10163775041514047E-001  0.93617847292482674E-002  0.11621815388434072E-001  0.28440282448718993E-001  0.82952407740384995E-001 -0.13242474917532104E-004 -0.99197140938241921E-005  0.36912735652060280E-004  0.43311824418245144E-004  0.38429699947233665E-004  0.12653512611087055E-003  0.37208932372120106E-001  </sparseX_slice>
        <sparseX_slice start="51" end="100"> -0.29203382662822770E-003 -0.64763146236102088E-004  0.11635325736572702E-002  0.23131217211264888E-002  0.17375961440914986E-002  0.75139423057786394E-002  0.10664898490902003E+000 -0.63380888317213604E-003  0.82563582743079380E-004  0.31343875878076296E-002  0.75689976393346556E-002  0.51057173123348508E-002  0.24340783098800479E-001  0.31865650736451936E-001  0.10786211499371430E-003  0.38231444723126534E-003  0.58086878224410598E-003  0.34193070374305677E-002  0.15188298113372220E-002  0.10508266116062240E-001 -0.11662558484378036E-001  0.70024531129286728E-007  0.13088163964577301E-005 -0.58180692589497301E-005 -0.60876676030007027E-005 -0.59786670203830294E-005 -0.17623099490294018E-004 -0.52313291651430952E-002  0.10408209717615470E-005  0.77980126538766738E-005 -0.18233579288423453E-003 -0.32427689864865036E-003 -0.26793257494993079E-003 -0.10461385846514948E-002 -0.14994140106140140E-001 -0.36467768329558383E-005 -0.13746783017647712E-004 
-0.48999873418897519E-003 -0.10601679166800835E-002 -0.77995819749980034E-003 -0.33878164415143278E-002 -0.63358170460218527E-002 -0.16159419325464294E-004 -0.73810002383459898E-004 -0.12598655898540435E-003 -0.67561067748367364E-003 -0.31213277011699693E-003 -0.20662471098607999E-002  0.62987224037356520E-003  0.14847796094383520E-005  </sparseX_slice>
        <sparseX_slice start="101" end="150">  0.71348856157457127E-005  0.13690757381847125E-004  0.66756168362363394E-004  0.32316302153345699E-004  0.20317196559120802E-003  0.17361978909503114E-002 -0.72992493379924855E-008 -0.19468161305554339E-006  0.86720174358142449E-006  0.90626399279677260E-006  0.89101627860049987E-006  0.26232495037016806E-005  0.77878474740807903E-003 -0.85143972097984191E-007 -0.11585742185373387E-005  0.27176059597883288E-004  0.48272670618255502E-004  0.39926933836102491E-004  0.15572013158507233E-003  0.22321683928757867E-002  0.70459115572531314E-006  0.20499409566762546E-005  0.73029484740969391E-004  0.15781712330921428E-003  0.11621666130031866E-003  0.50428241986608092E-003  0.94320917725599859E-003  0.23961555945275924E-005  0.10983426847029051E-004  0.18773155329215606E-004  0.10056788758113775E-003  0.46483375444455028E-004  0.30756080082835655E-003 -0.13260895605559088E-003 -0.31226062150114217E-006 -0.15015223688943194E-005 -0.28851288262792048E-005 
-0.14053031919470658E-004 -0.68066240494595540E-005 -0.42768911523858822E-004  0.13959287375265360E-004  0.32836609170488313E-007  0.15799621625387618E-006  0.30399963045103547E-006  0.14791720047859155E-005  0.71682358086899392E-006  0.45015556680248256E-005  0.11531565985312082E+000  0.21305432289058611E-004 -0.18597984101824002E-005  </sparseX_slice>
        <sparseX_slice start="151" end="200">  0.16587478339894592E-004  0.17134614079127462E-004 -0.14876913135520869E-004 -0.65220623850093081E-005  0.51725714850254255E-001  0.47433815638437858E-003 -0.29702593380885129E-004  0.52564860434563363E-003  0.79862810570915780E-003 -0.64525301082306492E-003 -0.37938029190360748E-003  0.14825727670182862E+000  0.11241400322759543E-002 -0.54784630455006637E-004  0.13990193807771265E-002  0.25256811612609110E-002 -0.17714457469328213E-002 -0.12114504397380051E-002  0.62646538866177839E-001  0.47626088600679120E-005  0.34661107021755877E-004  0.32419085357997588E-003  0.14634360009941683E-002 -0.46931657576120201E-003 -0.70485424368798633E-003 -0.88076879655774251E-002 -0.66843923580109279E-005 -0.44265577949569720E-005 -0.50517986144707124E-004 -0.20376115578451211E-003  0.74835597832811221E-004  0.98453957182299134E-004  0.13111950770036791E-002  0.10054736022474150E-005  0.65818520306700508E-006  0.75291364256178478E-005  0.30330110334191056E-004 
-0.11155744274941063E-004 -0.14655677597340114E-004  0.61580239869730505E-001  0.72064908305230651E-004  0.29016044213963848E-004  0.79043816670287055E-003  0.13193838060011961E-002  0.33964613844445700E-003  0.45962410004005686E-004  0.28446518003818877E+000  0.26758484916064517E-004 -0.63303374800156388E-006  0.35237315640235454E-004  </sparseX_slice>
        <sparseX_slice start="201" end="250">  0.46531036176057754E-004 -0.58563865920508747E-004 -0.45650762043816306E-004  0.12759901652753172E+000  0.60962208166518274E-003 -0.21311760113364825E-004  0.10589577311533550E-002  0.21693861436175811E-002 -0.25167976343259449E-002 -0.26518535384100188E-002  0.36572684891778717E+000  0.13352310120269349E-002 -0.51333582664110277E-004  0.28021823370899305E-002  0.68576249985064647E-002 -0.68732014753504784E-002 -0.84778723120530752E-002  0.15453893235346544E+000 -0.29766226561445981E-003  0.19652304436285758E-005  0.63382981769521637E-003  0.39666256804677400E-002 -0.17398385421455431E-002 -0.49545540995571047E-002 -0.21727149166378936E-001  0.30533365602354876E-004  0.23638411434445630E-006 -0.98684112543765749E-004 -0.55256949940654069E-003  0.28020248178755057E-003  0.69126251820295407E-003  0.32345073003971886E-002 -0.45251858735385607E-005 -0.36092910079606693E-007  0.14707208620494428E-004  0.82251094593892922E-004 -0.41773835891712396E-004 
-0.10289873255847839E-003  0.21483112356557574E+000 -0.10535056287682319E-004 -0.51414735816921675E-004  0.10963917665356513E-002  0.42820754454902660E-002  0.19304891495464367E-002  0.48796945025636202E-003  0.37473393859848919E+000  0.47528319048424151E-003  0.15578819574142295E-003  0.12689806556757366E-002  0.71920555984118194E-002  </sparseX_slice>
        <sparseX_slice start="251" end="300">  0.59698077483059542E-002  0.28859265749658605E-002  0.21819543985154033E+000 -0.69853058217878025E-004  0.47170397965501172E-005  0.54059296384009400E-005  0.26669043039344405E-004 -0.72552502510717966E-004 -0.89171930053671939E-004  0.97873221362667642E-001 -0.15075947991510681E-002  0.21997927021444457E-004 -0.39564063890111656E-004  0.12617785251396686E-002 -0.30701669008027475E-002 -0.51749999255148579E-002  0.28052618128665679E+000 -0.38685243207574990E-002 -0.29950440674767699E-004 -0.19145634057731562E-003  0.39917108556815090E-002 -0.83026686895108850E-002 -0.16549768643785847E-001  0.11853714508933938E+000 -0.84138595041169612E-003 -0.17052838081421502E-003 -0.16685145623836795E-003  0.23098906576269566E-002 -0.19167929136348998E-002 -0.96847966393349260E-002 -0.16665536599036985E-001  0.12740727609648707E-003  0.24098772322630961E-004  0.25082763931530642E-004 -0.32273519980271034E-003  0.31512177301157160E-003  0.13505351421491682E-002  
0.24809881582639991E-002 -0.18980597683367751E-004 -0.35876906538338212E-005 -0.37379941282670436E-005  0.48041213911273287E-004 -0.46989180910328825E-004 -0.20103441193355525E-003  0.16478351232266295E+000 -0.71371863588341028E-003 -0.33890132025067202E-003 -0.33406144234712112E-002  0.75187474762997153E-003  0.25062110480482160E-002  </sparseX_slice>
        <sparseX_slice start="301" end="350">  0.99294480032259503E-003  0.40649441333377417E+000  0.19450150347617259E-002  0.92099968500696373E-003 -0.11126689912668555E-002  0.27213968977629643E-002  0.12161681107234212E-001  0.87093401963936699E-002  0.22047336930511399E+000  0.72383800974853644E-002  0.31254294194675617E-002  0.11717911028194920E-001  0.22858111606912186E-002  0.13789189057490792E-001  0.13418602970515210E-001  0.83221218738349523E-002 -0.89927005894867515E-004 -0.76922421599937348E-005 -0.95351615271416761E-005 -0.23613857947469716E-004  0.14035603860533792E-004 -0.91029053650901340E-005  0.37329509586412034E-002 -0.19707704203720017E-002 -0.18840799835584138E-003 -0.46773253023672286E-003 -0.10544527618919161E-002  0.65280705649152124E-003 -0.52220953803342395E-003  0.10699458572816707E-001 -0.47036369866799805E-002 -0.45365989175330111E-003 -0.13635953222543623E-002 -0.33095628513011306E-002  0.18784105310810123E-002 -0.16654016026473868E-002  0.45210870065897696E-002 
-0.12808445793622444E-003 -0.10732082163485386E-004 -0.53762355309887680E-003 -0.18781284015340980E-002  0.69365985896884257E-003 -0.96632732113064996E-003 -0.63563485453412222E-003  0.41048900885023032E-004  0.42236128375005715E-005  0.80717039154389115E-004  0.26042251675743747E-003 -0.10443773370842533E-003  0.13445510795858951E-003  </sparseX_slice>
        <sparseX_slice start="351" end="400">  0.94626568890085645E-004 -0.61502971133936529E-005 -0.63338696054287990E-006 -0.12025323088701950E-004 -0.38762626134417493E-004  0.15559132636315113E-004 -0.20013938060717201E-004  0.62849547785272077E-002 -0.48700159439012879E-003 -0.65097820445489447E-005 -0.17093868331034866E-002 -0.28972570176046090E-002 -0.28896560350317367E-003  0.14130156987117868E-003  0.15503972269532410E-001  0.41297355560586044E-003  0.25780565819429925E-003 -0.86381642493048771E-003 -0.63655446902821456E-002 -0.30280865463108139E-003  0.15259848965319188E-002  0.11892127002477288E-001  0.44766719496191877E-002  0.95799267419127221E-003  0.77653339515212300E-002 -0.22055897399224933E-003  0.12289069772024165E-002  0.36634719523317475E-002  0.32072509502799410E-003  0.18883079372978325E-002  0.49142040676439670E-003  0.29004918391974193E-002  0.35868304074963176E-002  0.11014782177627494E-002  0.78929083497220054E-003 -0.10259022951180018E-002  0.12925121942866768E-004  
0.10642955066862474E-005  0.14474571592451322E-005  0.34553651215999488E-005 -0.21030885919191672E-005  0.12655846097290927E-005 -0.46017626443004754E-003  0.28317126105979333E-003  0.25878940466234893E-004  0.69047381229739364E-004  0.15475091033285209E-003 -0.97530718175874859E-004  0.72549411303080949E-004 -0.13189663973659719E-002  </sparseX_slice>
        <sparseX_slice start="401" end="450">  0.67575434218435581E-003  0.61899047376656199E-004  0.19999563486664237E-003  0.48595292266929773E-003 -0.28014626928405387E-003  0.23144652119667212E-003 -0.55733304640385832E-003  0.18213132560876487E-004  0.46319655547339402E-006  0.76400642694279957E-004  0.27614713665615527E-003 -0.10239251114308367E-003  0.13446879294484775E-003  0.78357330739625000E-004 -0.58711334379439738E-005 -0.44374708484135534E-006 -0.11502268576730933E-004 -0.38303078519096182E-004  0.15432254789515065E-004 -0.18703192991781431E-004 -0.11665007515534716E-004  0.87968916460527280E-006  0.66707033936414832E-007  0.17136768684737988E-005  0.57012459055876271E-005 -0.22991257969992220E-005  0.27839992623125992E-005 -0.77477230323625388E-003  0.69933824199057510E-004  0.19006433339050346E-005  0.25355833453079323E-003  0.42372967009691754E-003  0.44422578667360790E-004 -0.19945187923635054E-004 -0.19112386210981603E-002 -0.59360402719029905E-004 -0.38466360379452395E-004  
0.13057107313311155E-003  0.93054310186412340E-003  0.54848131963634960E-004 -0.21854351379897382E-003 -0.14659915548742386E-002 -0.64321698337079056E-003 -0.14557822319208593E-003 -0.11424670727692827E-002  0.32228066051731424E-004 -0.16165977782527520E-003 -0.52585049826965927E-003 -0.55913910913890654E-004 -0.38405976914696434E-003  </sparseX_slice>
        <sparseX_slice start="451" end="500"> -0.98402184530142235E-004 -0.60017204737372576E-003 -0.73894645341576379E-003 -0.22390643622788751E-003 -0.15916055966343592E-003  0.48739021083049620E-005  0.39057986109937327E-004  0.98781358663657427E-005  0.62140038023356814E-004  0.76145441284605655E-004  0.22787672071403816E-004  0.16072232048206111E-004  0.15244016562795371E-003 -0.19246615363885804E-005 -0.15840922066010662E-006 -0.21567985642754858E-006 -0.51464902806703894E-006  0.31333138002235155E-006 -0.18836980288017762E-006  0.68378193812014751E-004 -0.42166489391860948E-004 -0.38513935434423893E-005 -0.10285042140365059E-004 -0.23049748216426956E-004  0.14530199685492188E-004 -0.10798167184555561E-004  0.19598694439907399E-003 -0.10062504208288003E-003 -0.92111706584693783E-005 -0.29788284354225679E-004 -0.72381885983879005E-004  0.41735463513362186E-004 -0.34448372359383622E-004  0.82814847289101629E-004 -0.27115197991527155E-005 -0.66847626218375269E-007 -0.11375067905045977E-004 
-0.41132366118483368E-004  0.15252144963419258E-004 -0.20014604892389113E-004 -0.11643218397068568E-004  0.87418244716057923E-006  0.65757753654379555E-007  0.17125973772063940E-005  0.57053004093850243E-005 -0.22987842764604289E-005  0.27838076465308007E-005  0.17333187440767956E-005 -0.13098140222036722E-006 -0.98855808655831079E-008  </sparseX_slice>
        <sparseX_slice start="501" end="547"> -0.25515311571026786E-006 -0.84920907526669970E-006  0.34247718061762939E-006 -0.41437405926859677E-006  0.11512443123611576E-003 -0.10413533220975647E-004 -0.28473830869614477E-006 -0.37771115231417617E-004 -0.63110648646559205E-004 -0.66204023084203126E-005  0.29692561889574983E-005  0.28399344980628371E-003  0.88387701958807622E-005  0.57304025394300194E-005 -0.19455029220394492E-004 -0.13859533822942630E-003 -0.81891992842417566E-005  0.32540627377434471E-004  0.21783360510808252E-003  0.95778040130078626E-004  0.21691552091108354E-004  0.17016914951778489E-003 -0.48007695329792445E-005  0.24043185525613237E-004  0.78300190777195656E-004  0.83083212516253761E-005  0.57189446522425206E-004  0.14649981919919394E-004  0.89389062578214347E-004  0.11005377865044529E-003  0.33341334704370818E-004  0.23697547809697276E-004 -0.10242010354857225E-005 -0.82251174047365589E-005 -0.20798713099389070E-005 -0.13088775279490665E-004 -0.16038095720593518E-004 
-0.47988651112068083E-005 -0.33842877355313396E-005  0.10761272362267875E-006  0.86605280284226982E-006  0.21896167720209544E-006  0.13784675890454447E-005  0.16890080586417080E-005  0.50529758068353660E-006  0.35631037558486622E-006  0.00000000000000000E+000  </sparseX_slice>
      </sparseX>
      <sparseX i="7" alpha="22.632860424849600" sparseCutoff="1.0000000000000000" sliced="T">
        <sparseX_slice start="1" end="50">  0.10797068971580286E+000  0.41013112502395883E-005  0.24181424310213444E-006  0.16830365739499354E-005  0.50554343117035767E-006  0.81815111239701119E-006  0.78132153320096080E-006  0.68491657130294814E-001  0.12912230235426320E-003  0.47663735348906396E-005  0.69742270685608379E-004  0.29561818060367074E-004  0.49309653053257303E-004  0.65229240570341082E-004  0.21723984114585405E-001  0.20355203402357448E-002  0.62578018365303618E-004  0.14655571998034998E-002  0.95250566233788406E-003  0.14952520035663491E-002  0.27269056492262617E-002  0.19631227723005967E+000  0.30061519718347843E-003  0.69554800306008093E-005  0.18245712064780923E-003  0.89057807869663661E-004  0.13621423395956370E-003  0.21035579719219500E-003  0.88057076217055011E-001  0.67040542004276537E-002  0.18140107597632422E-003  0.54519851206057861E-002  0.41993172272918895E-002  0.58761766782940723E-002  0.12449205737410545E-001  0.17846746321937773E+000  0.11052492998062000E-001  
0.32940300700753781E-003  0.10163806891169828E-001  0.93617647101518972E-002  0.11621836464164802E-001  0.28440212805685948E-001  0.82952514799425614E-001 -0.13241134050504067E-004 -0.99195985167655602E-005  0.36913328586934602E-004  0.43311816743221875E-004  0.38430014555461562E-004  0.12653475285900878E-003  0.37208859380349138E-001  </sparseX_slice>
        <sparseX_slice start="51" end="100"> -0.29200389234091583E-003 -0.64761892238560242E-004  0.11635510783245939E-002  0.23131230111561366E-002  0.17376143255994686E-002  0.75139328087066772E-002  0.10664884197784288E+000 -0.63373911604797150E-003  0.82566536710130815E-004  0.31344375861267742E-002  0.75690086662300983E-002  0.51057738333544819E-002  0.24340766128712901E-001  0.31865683777982698E-001  0.10786005757440901E-003  0.38231499412802960E-003  0.58087837972980235E-003  0.34193216441177790E-002  0.15188507672612955E-002  0.10508277054422878E-001 -0.11662573299752985E-001  0.69838591022723981E-007  0.13088011547911174E-005 -0.58181486985944669E-005 -0.60876653639088579E-005 -0.59787068271461144E-005 -0.17623047046404306E-004 -0.52313187969381253E-002  0.10364807428323864E-005  0.77978603992003829E-005 -0.18233833611400315E-003 -0.32427698265185412E-003 -0.26793501463743586E-003 -0.10461372372635369E-002 -0.14994119707013127E-001 -0.36570868613228218E-005 -0.13747125380362194E-004 
-0.49000566317788528E-003 -0.10601691130538201E-002 -0.77996589778248223E-003 -0.33878140027177985E-002 -0.63358234872022204E-002 -0.16159406682178560E-004 -0.73810068853020453E-004 -0.12598855149657272E-003 -0.67561329198482676E-003 -0.31213702672498950E-003 -0.20662492275237954E-002  0.62987286795206804E-003  0.14848192665700925E-005  </sparseX_slice>
